<?xml version="1.0"?>
<opencv_storage>
<opencv_ml_svm>
  <format>3</format>
  <svmType>C_SVC</svmType>
  <kernel>
    <type>CHI2</type>
    <gamma>5.</gamma></kernel>
  <C>10.</C>
  <term_criteria><epsilon>5.0000000000000002e-05</epsilon>
    <iterations>80000</iterations></term_criteria>
  <var_count>2</var_count>
  <class_count>6</class_count>
  <class_labels type_id="opencv-matrix">
    <rows>6</rows>
    <cols>1</cols>
    <dt>i</dt>
    <data>
      98 103 111 114 119 121</data></class_labels>
  <sv_total>85</sv_total>
  <support_vectors>
    <_>
      0. 1.</_>
    <_>
      0. 1.</_>
    <_>
      0. 1.</_>
    <_>
      0. 1.</_>
    <_>
      0. 1.</_>
    <_>
      0. 1.</_>
    <_>
      0. 1.</_>
    <_>
      0. 1.</_>
    <_>
      0. 1.</_>
    <_>
      0. 1.</_>
    <_>
      0. 1.</_>
    <_>
      0. 1.</_>
    <_>
      0. 1.</_>
    <_>
      0. 1.</_>
    <_>
      0. 1.</_>
    <_>
      0. 1.</_>
    <_>
      0. 1.</_>
    <_>
      0. 1.</_>
    <_>
      0. 1.</_>
    <_>
      0. 1.</_>
    <_>
      0. 1.</_>
    <_>
      0. 1.</_>
    <_>
      0. 1.</_>
    <_>
      0. 1.</_>
    <_>
      0. 1.</_>
    <_>
      1.95530728e-01 1.</_>
    <_>
      1.84357539e-01 1.</_>
    <_>
      5.92178762e-01 1.</_>
    <_>
      0. 1.</_>
    <_>
      0. 1.</_>
    <_>
      0. 1.</_>
    <_>
      0. 1.</_>
    <_>
      0. 1.</_>
    <_>
      0. 1.</_>
    <_>
      0. 1.</_>
    <_>
      0. 1.</_>
    <_>
      0. 1.</_>
    <_>
      0. 1.</_>
    <_>
      0. 1.</_>
    <_>
      0. 1.</_>
    <_>
      0. 1.</_>
    <_>
      5.58659201e-03 1.</_>
    <_>
      5.58659201e-03 1.</_>
    <_>
      5.58659201e-03 1.</_>
    <_>
      5.58659201e-03 1.</_>
    <_>
      2.79329605e-02 1.</_>
    <_>
      0. 1.</_>
    <_>
      0. 1.</_>
    <_>
      0. 1.</_>
    <_>
      0. 1.</_>
    <_>
      0. 1.</_>
    <_>
      0. 1.</_>
    <_>
      0. 1.</_>
    <_>
      0. 1.</_>
    <_>
      0. 1.</_>
    <_>
      0. 1.</_>
    <_>
      0. 1.</_>
    <_>
      0. 1.</_>
    <_>
      0. 1.</_>
    <_>
      0. 1.</_>
    <_>
      0. 1.</_>
    <_>
      0. 1.</_>
    <_>
      1. 1.</_>
    <_>
      9.83240247e-01 9.49019611e-01</_>
    <_>
      0. 9.68627453e-01</_>
    <_>
      9.83240247e-01 1.</_>
    <_>
      1.84357539e-01 7.01960802e-01</_>
    <_>
      1.89944133e-01 7.13725507e-01</_>
    <_>
      0. 7.84313772e-03</_>
    <_>
      6.14525139e-01 5.88235296e-02</_>
    <_>
      0. 0.</_>
    <_>
      8.37988853e-01 3.92156886e-03</_>
    <_>
      1.28491625e-01 5.88235296e-02</_>
    <_>
      2.73743004e-01 3.52941193e-02</_>
    <_>
      3.35195541e-01 7.84313772e-03</_>
    <_>
      2.51396656e-01 7.84313772e-03</_>
    <_>
      5.69832385e-01 1.</_>
    <_>
      5.86592197e-01 8.00000012e-01</_>
    <_>
      5.92178762e-01 7.64705896e-01</_>
    <_>
      3.74301672e-01 9.88235295e-01</_>
    <_>
      3.68715078e-01 9.92156863e-01</_>
    <_>
      4.24580991e-01 8.47058833e-01</_>
    <_>
      3.12849164e-01 1.</_>
    <_>
      2.84916192e-01 4.62745100e-01</_>
    <_>
      2.84916192e-01 6.62745118e-01</_></support_vectors>
  <decision_functions>
    <_>
      <sv_count>3</sv_count>
      <rho>-2.1792826342846253e-01</rho>
      <alpha>
        3.2411357168661876e+00 5.5864380483504368e+00
        -8.8275737652166253e+00</alpha>
      <index>
        76 77 81</index></_>
    <_>
      <sv_count>4</sv_count>
      <rho>-5.5951101166877137e-03</rho>
      <alpha>
        6.4645471198499960e-01 5.0881759887298439e-01
        -6.8844827825280375e-01 -4.6682403260518007e-01</alpha>
      <index>
        76 78 45 20</index></_>
    <_>
      <sv_count>5</sv_count>
      <rho>4.3552945719744429e-01</rho>
      <alpha>
        2.0042573646879038e+00 1.0867391024729733e+00
        -6.0387526000524869e-02 -2.3904724542327380e+00
        -6.4013648692761427e-01</alpha>
      <index>
        27 78 53 63 64</index></_>
    <_>
      <sv_count>9</sv_count>
      <rho>3.9353456423325617e-01</rho>
      <alpha>
        7.0085634189516521e-01 8.2151304347396970e-01
        -2.7446502727834643e-01 -4.0364230940978918e-01
        -3.9498017855060763e-01 -2.8015609355024568e-01
        -9.9778584858486140e-03 -1.1039961042085615e-01
        -4.8748307673441800e-02</alpha>
      <index>
        76 78 69 70 71 72 74 75 68</index></_>
    <_>
      <sv_count>4</sv_count>
      <rho>2.8409805942895973e-02</rho>
      <alpha>
        1.0824497380063367e+00 6.8940626634347868e-01
        -1.0688193483181054e+00 -7.0303665603171017e-01</alpha>
      <index>
        76 78 25 67</index></_>
    <_>
      <sv_count>4</sv_count>
      <rho>-2.0559145921874383e-01</rho>
      <alpha>
        6.1041968894046361e-01 1.0349105036505053e+00
        -1.2923377667362510e+00 -3.5299242585471774e-01</alpha>
      <index>
        83 82 45 20</index></_>
    <_>
      <sv_count>7</sv_count>
      <rho>2.1642172235459195e-01</rho>
      <alpha>
        1.2643656910927099e+00 8.8817126711158612e-01
        8.9563197066141909e-02 1.1544850542058673e-02
        -1.1589030133673568e+00 -1.0694201348514849e+00
        -2.5321857593654785e-02</alpha>
      <index>
        79 83 81 82 63 64 65</index></_>
    <_>
      <sv_count>9</sv_count>
      <rho>2.6628764438098057e-01</rho>
      <alpha>
        6.5993920385360261e-01 1.1133071977874027e+00
        2.2095137402486550e-01 -3.8290142910106328e-01
        -5.0673176716754220e-01 -4.2974785549655814e-01
        -5.2921788066079278e-01 -3.7923326441727079e-02
        -1.0767551679818688e-01</alpha>
      <index>
        80 83 82 69 70 71 72 73 74</index></_>
    <_>
      <sv_count>4</sv_count>
      <rho>-2.5705703304954330e-01</rho>
      <alpha>
        7.7849746216431317e+00 2.9821856061071572e+00
        -2.2372323720126204e+00 -8.5299278557376734e+00</alpha>
      <index>
        84 82 25 67</index></_>
    <_>
      <sv_count>61</sv_count>
      <rho>5.0908210627947836e-01</rho>
      <alpha>
        10. 10. 10. 6.5683283009212348e+00 10. 10. 10. 10. 10. 10. 10.
        10. 10. 10. 10. 10. 10. 10. 10. 10. 10. 10. 10. 10. 10. 10. 10.
        10. 10. -10. -10. -10. -10. -10. -10. -10. -10. -10. -10. -10.
        -10. -10. -10. -10. -10. -10. -10. -10. -10. -10. -10. -10. -10.
        -10. -10. -10. -10. -5.8021912723812816e+00
        -2.4512617992735483e-01 -2.4653579357227126e-01
        -2.7447505504032610e-01</alpha>
      <index>
        44 43 42 41 20 18 17 16 15 19 24 23 22 21 11 13 12 10 9 8 1 0 2
        5 7 6 4 3 14 53 52 51 50 49 48 47 46 28 29 30 31 32 33 34 35 36
        37 38 39 40 54 61 60 59 58 57 56 55 63 64 65</index></_>
    <_>
      <sv_count>9</sv_count>
      <rho>3.9377609785255280e-01</rho>
      <alpha>
        7.5154547654151949e-01 7.4615327086014649e-01
        -1.9066460977424812e-01 -3.9990117564384964e-01
        -4.1892141657652820e-01 -3.0322045846744511e-01
        -8.3594416738758240e-02 -4.1324115971731412e-02
        -6.0072554229105408e-02</alpha>
      <index>
        45 20 69 70 71 72 74 75 68</index></_>
    <_>
      <sv_count>3</sv_count>
      <rho>9.2005784296229534e-02</rho>
      <alpha>
        2.3418729264243781e+00 -1.8289307645588915e+00
        -5.1294216186548658e-01</alpha>
      <index>
        45 26 66</index></_>
    <_>
      <sv_count>11</sv_count>
      <rho>1.0358145324310018e-01</rho>
      <alpha>
        2.6400924171832585e-01 4.3215257056503226e-01
        6.7644555676043538e-01 8.4253504202725815e-01
        -3.0521613550833632e-01 -5.8989167350963090e-01
        -6.2021404128873725e-01 -4.2446881133649927e-01
        -7.3286721766035512e-02 -1.1422172885775626e-01
        -8.7843298804057016e-02</alpha>
      <index>
        53 62 63 64 69 70 71 72 74 75 68</index></_>
    <_>
      <sv_count>5</sv_count>
      <rho>-3.7059070172340902e-01</rho>
      <alpha>
        5.7949147530427902e-01 1.4246547875161379e+00
        1.7238556858647278e-01 -1.3405881091284757e+00
        -8.3594372227841374e-01</alpha>
      <index>
        63 64 65 26 66</index></_>
    <_>
      <sv_count>9</sv_count>
      <rho>-3.7568447951266720e-01</rho>
      <alpha>
        2.1079350791363738e-01 4.3256750814459810e-01
        4.2124752782644753e-01 3.8349383744288629e-01
        1.1376578693887454e-01 2.0232393649685626e-02
        -6.8233974795087393e-01 -4.4520858945969563e-02
        -8.5523995501928562e-01</alpha>
      <index>
        69 70 71 72 74 68 25 26 66</index></_></decision_functions></opencv_ml_svm>
</opencv_storage>
