<?xml version="1.0"?>
<opencv_storage>
<opencv_ml_svm>
  <format>3</format>
  <svmType>C_SVC</svmType>
  <kernel>
    <type>CHI2</type>
    <gamma>5.</gamma></kernel>
  <C>10.</C>
  <term_criteria><epsilon>5.0000000000000002e-05</epsilon>
    <iterations>80000</iterations></term_criteria>
  <var_count>2</var_count>
  <class_count>6</class_count>
  <class_labels type_id="opencv-matrix">
    <rows>6</rows>
    <cols>1</cols>
    <dt>i</dt>
    <data>
      98 103 111 114 119 121</data></class_labels>
  <sv_total>192</sv_total>
  <support_vectors>
    <_>
      0. 1.</_>
    <_>
      0. 1.</_>
    <_>
      0. 1.</_>
    <_>
      0. 1.</_>
    <_>
      0. 1.</_>
    <_>
      0. 1.</_>
    <_>
      0. 1.</_>
    <_>
      0. 1.</_>
    <_>
      0. 1.</_>
    <_>
      0. 1.</_>
    <_>
      0. 1.</_>
    <_>
      0. 1.</_>
    <_>
      0. 1.</_>
    <_>
      0. 1.</_>
    <_>
      0. 1.</_>
    <_>
      0. 1.</_>
    <_>
      0. 1.</_>
    <_>
      0. 1.</_>
    <_>
      0. 1.</_>
    <_>
      0. 1.</_>
    <_>
      0. 1.</_>
    <_>
      0. 1.</_>
    <_>
      0. 1.</_>
    <_>
      0. 1.</_>
    <_>
      0. 1.</_>
    <_>
      0. 1.</_>
    <_>
      0. 1.</_>
    <_>
      0. 1.</_>
    <_>
      0. 1.</_>
    <_>
      0. 1.</_>
    <_>
      0. 1.</_>
    <_>
      0. 1.</_>
    <_>
      0. 1.</_>
    <_>
      0. 1.</_>
    <_>
      0. 1.</_>
    <_>
      0. 1.</_>
    <_>
      0. 1.</_>
    <_>
      0. 1.</_>
    <_>
      0. 1.</_>
    <_>
      0. 1.</_>
    <_>
      0. 1.</_>
    <_>
      0. 1.</_>
    <_>
      0. 1.</_>
    <_>
      0. 1.</_>
    <_>
      0. 1.</_>
    <_>
      0. 1.</_>
    <_>
      0. 1.</_>
    <_>
      0. 1.</_>
    <_>
      0. 1.</_>
    <_>
      0. 1.</_>
    <_>
      0. 1.</_>
    <_>
      0. 1.</_>
    <_>
      0. 1.</_>
    <_>
      0. 1.</_>
    <_>
      0. 1.</_>
    <_>
      0. 1.</_>
    <_>
      0. 1.</_>
    <_>
      0. 1.</_>
    <_>
      0. 1.</_>
    <_>
      0. 1.</_>
    <_>
      0. 1.</_>
    <_>
      0. 1.</_>
    <_>
      0. 1.</_>
    <_>
      0. 1.</_>
    <_>
      0. 1.</_>
    <_>
      0. 1.</_>
    <_>
      0. 1.</_>
    <_>
      0. 1.</_>
    <_>
      0. 1.</_>
    <_>
      0. 1.</_>
    <_>
      1.95530728e-01 1.</_>
    <_>
      1.89944133e-01 1.</_>
    <_>
      1.95530728e-01 8.23529422e-01</_>
    <_>
      1.95530728e-01 8.27450991e-01</_>
    <_>
      0. 1.</_>
    <_>
      0. 1.</_>
    <_>
      0. 1.</_>
    <_>
      0. 1.</_>
    <_>
      0. 1.</_>
    <_>
      0. 1.</_>
    <_>
      0. 1.</_>
    <_>
      0. 1.</_>
    <_>
      0. 1.</_>
    <_>
      0. 1.</_>
    <_>
      0. 1.</_>
    <_>
      0. 1.</_>
    <_>
      0. 1.</_>
    <_>
      0. 1.</_>
    <_>
      0. 1.</_>
    <_>
      0. 1.</_>
    <_>
      0. 1.</_>
    <_>
      0. 1.</_>
    <_>
      0. 1.</_>
    <_>
      0. 1.</_>
    <_>
      0. 1.</_>
    <_>
      0. 1.</_>
    <_>
      0. 1.</_>
    <_>
      0. 1.</_>
    <_>
      0. 1.</_>
    <_>
      0. 1.</_>
    <_>
      0. 1.</_>
    <_>
      0. 1.</_>
    <_>
      0. 1.</_>
    <_>
      0. 1.</_>
    <_>
      0. 1.</_>
    <_>
      0. 1.</_>
    <_>
      0. 1.</_>
    <_>
      0. 1.</_>
    <_>
      0. 1.</_>
    <_>
      0. 1.</_>
    <_>
      0. 1.</_>
    <_>
      0. 1.</_>
    <_>
      0. 1.</_>
    <_>
      0. 1.</_>
    <_>
      0. 1.</_>
    <_>
      0. 1.</_>
    <_>
      0. 1.</_>
    <_>
      0. 1.</_>
    <_>
      0. 1.</_>
    <_>
      0. 1.</_>
    <_>
      0. 1.</_>
    <_>
      0. 1.</_>
    <_>
      0. 1.</_>
    <_>
      0. 1.</_>
    <_>
      0. 1.</_>
    <_>
      0. 1.</_>
    <_>
      0. 1.</_>
    <_>
      0. 1.</_>
    <_>
      0. 1.</_>
    <_>
      0. 1.</_>
    <_>
      0. 1.</_>
    <_>
      0. 1.</_>
    <_>
      0. 1.</_>
    <_>
      0. 1.</_>
    <_>
      0. 1.</_>
    <_>
      0. 1.</_>
    <_>
      0. 1.</_>
    <_>
      0. 1.</_>
    <_>
      0. 1.</_>
    <_>
      0. 1.</_>
    <_>
      0. 1.</_>
    <_>
      0. 1.</_>
    <_>
      1. 1.</_>
    <_>
      1. 1.</_>
    <_>
      0. 1.</_>
    <_>
      1. 1.</_>
    <_>
      0. 1.</_>
    <_>
      0. 1.</_>
    <_>
      0. 1.</_>
    <_>
      0. 1.</_>
    <_>
      0. 1.</_>
    <_>
      0. 1.</_>
    <_>
      0. 1.</_>
    <_>
      9.83240247e-01 8.58823538e-01</_>
    <_>
      0. 9.88235295e-01</_>
    <_>
      9.55307245e-01 9.72549021e-01</_>
    <_>
      9.49720681e-01 8.86274517e-01</_>
    <_>
      9.88826811e-01 8.70588243e-01</_>
    <_>
      9.83240247e-01 8.50980401e-01</_>
    <_>
      4.46927369e-01 1.56862754e-02</_>
    <_>
      1.67597771e-01 3.92156886e-03</_>
    <_>
      8.37988853e-02 1.17647061e-02</_>
    <_>
      2.79329605e-02 1.</_>
    <_>
      0. 9.49019611e-01</_>
    <_>
      0. 9.56862748e-01</_>
    <_>
      1. 9.84313726e-01</_>
    <_>
      1. 9.84313726e-01</_>
    <_>
      9.94413435e-01 9.52941179e-01</_>
    <_>
      1. 9.21568632e-01</_>
    <_>
      0. 8.78431380e-01</_>
    <_>
      2.79329605e-02 9.41176474e-01</_>
    <_>
      0. 6.98039234e-01</_>
    <_>
      1.89944133e-01 1.41176477e-01</_>
    <_>
      3.35195549e-02 1.01960786e-01</_>
    <_>
      9.72067058e-01 6.27451017e-02</_>
    <_>
      5.58659201e-03 1.</_>
    <_>
      5.58659201e-03 1.</_>
    <_>
      5.58659201e-03 1.</_>
    <_>
      5.58659201e-03 1.</_>
    <_>
      1. 7.41176486e-01</_>
    <_>
      5.97765386e-01 1.</_>
    <_>
      5.86592197e-01 1.</_>
    <_>
      5.86592197e-01 9.84313726e-01</_>
    <_>
      6.31284893e-01 6.98039234e-01</_>
    <_>
      6.25698328e-01 6.74509823e-01</_>
    <_>
      3.40782136e-01 1.</_>
    <_>
      4.07821238e-01 9.09803927e-01</_>
    <_>
      3.85474861e-01 9.72549021e-01</_>
    <_>
      2.68156439e-01 7.33333349e-01</_>
    <_>
      2.68156439e-01 9.33333337e-01</_>
    <_>
      2.51396656e-01 3.33333343e-01</_>
    <_>
      2.79329598e-01 9.72549021e-01</_></support_vectors>
  <decision_functions>
    <_>
      <sv_count>4</sv_count>
      <rho>6.5233692810603483e-02</rho>
      <alpha>
        5.2551465587877360e+00 1.3940967731633624e+00
        -4.7858651203893632e-01 -6.1706568199121605e+00</alpha>
      <index>
        182 184 190 186</index></_>
    <_>
      <sv_count>6</sv_count>
      <rho>4.8949358741548643e-01</rho>
      <alpha>
        1.3443627597418086e+00 2.1801043642206825e+00
        -1.0094874332812327e+00 -3.1911213517161985e-01
        -4.7940248827816279e-01 -1.7164650672314778e+00</alpha>
      <index>
        180 183 167 171 162 179</index></_>
    <_>
      <sv_count>4</sv_count>
      <rho>3.7485545622296551e-01</rho>
      <alpha>
        1.9823220073665240e+00 1.9448171890524846e+00
        -7.6276129323719022e-01 -3.1643779031818178e+00</alpha>
      <index>
        180 183 154 156</index></_>
    <_>
      <sv_count>8</sv_count>
      <rho>3.7704838602832080e-01</rho>
      <alpha>
        7.3504674704666495e-01 9.0366824011408731e-01
        -2.6238829973813577e-01 -3.2159613083850858e-01
        -5.6879750059920919e-01 -1.4158571077592877e-01
        -9.0085722934895945e-02 -2.5426162227407495e-01</alpha>
      <index>
        181 184 172 173 174 161 160 159</index></_>
    <_>
      <sv_count>4</sv_count>
      <rho>-6.9520886577843569e-02</rho>
      <alpha>
        1.1321476965119270e+00 5.6797198850318265e-01
        -8.3826128048889448e-01 -8.6185840452621498e-01</alpha>
      <index>
        181 184 70 72</index></_>
    <_>
      <sv_count>7</sv_count>
      <rho>2.1619974180842974e-01</rho>
      <alpha>
        9.9505640266040452e-01 1.0615695181066931e+00
        6.8769840726461273e-01 -5.7279214355568275e-01
        -9.5743682054603374e-01 -6.1315172380335314e-01
        -6.0094364012664070e-01</alpha>
      <index>
        191 190 186 171 162 165 179</index></_>
    <_>
      <sv_count>6</sv_count>
      <rho>1.4054750241412819e-01</rho>
      <alpha>
        4.0185865164038359e-01 9.1028326216768840e-01
        1.1937704261808182e+00 -1.1513685750680120e+00
        -1.6321166923377528e-01 -1.1913320956871032e+00</alpha>
      <index>
        191 190 186 154 155 156</index></_>
    <_>
      <sv_count>7</sv_count>
      <rho>1.6020897158152975e-01</rho>
      <alpha>
        7.5327341552217975e-01 1.0353683809810636e-02
        2.7214785034508893e+00 -2.4845057325560034e+00
        -6.1357164535848017e-02 -7.5775572529359980e-01
        -1.8148698039742717e-01</alpha>
      <index>
        185 187 190 172 173 174 159</index></_>
    <_>
      <sv_count>6</sv_count>
      <rho>-3.9284821167174566e-01</rho>
      <alpha>
        2.4066739610726848e-01 7.5110399238902374e+00 10.
        -2.9256441256574175e+00 -10. -4.8260631943400902e+00</alpha>
      <index>
        190 188 189 70 72 73</index></_>
    <_>
      <sv_count>165</sv_count>
      <rho>1.4954217313961269e-02</rho>
      <alpha>
        10. 10. 10. 10. 10. 10. 10. 9.9919521684973560e+00 10. 10.
        6.3587378057826358e+00 10. 10. 10. 10. 10. 10. 10. 10. 10. 10.
        10. 10. 10. 10. 10. 10. 10. 10. 10. 10. 10. 10. 10. 10. 10. 10.
        10. 10. 10. 10. 10. 10. 10. 10. 10. 10. 10. 10. 10. 10. 10. 10.
        10. 10. 10. 10. 10. 10. 10. 10. 10. 10. 10. 10. 10. 10. 10. 10.
        10. 10. 10. 10. 10. 10. 10. 10. 10. 10. 10. 10. 10.
        -9.9686897713224525e+00 -10. -10. -10. -10. -10. -10. -10. -10.
        -10. -10. -9.9696464015782293e+00 -10. -10.
        -1.8018651642056955e+00 -10. -10. -10. -10. -10. -10. -10. -10.
        -10. -10. -10. -10. -10. -10. -10. -10. -10. -10. -10. -10. -10.
        -10. -10. -10. -10. -10. -10. -10. -10. -10. -10. -10. -10. -10.
        -8.7602886254450869e+00 -10. -10. -10. -10. -10. -10. -10. -10.
        -10. -10. -10. -10. -10. -10. -10. -10. -10. -10. -10. -10. -10.
        -10. -10. -10. -10. -10. -10. -10. -10. -10. -10. -10.
        -5.8502000117285515e+00</alpha>
      <index>
        168 169 167 165 164 166 163 178 175 176 177 179 48 43 44 45 46
        47 42 49 50 51 52 30 31 32 33 34 35 36 53 37 38 39 40 41 59 60
        61 62 63 64 65 66 67 68 69 54 55 56 57 58 1 2 3 0 14 15 16 17 18
        19 20 21 22 23 24 25 26 27 28 29 4 5 6 7 8 9 10 11 12 13 76 74
        146 134 135 136 137 138 139 140 141 142 143 144 145 133 147 148
        149 150 119 106 107 108 109 110 111 112 113 114 115 116 117 118
        120 121 122 123 124 125 126 127 128 129 130 131 132 154 153 157
        158 151 75 152 92 79 80 81 82 83 84 85 86 87 88 89 90 91 78 93
        94 95 96 97 98 99 100 101 102 103 104 105 77</index></_>
    <_>
      <sv_count>10</sv_count>
      <rho>4.9842170466655664e-02</rho>
      <alpha>
        7.5397861907149888e-01 5.6365142827890036e-01
        4.6178253910928829e-01 7.0649771772919934e-01
        -2.9789670926793399e-01 -6.5848547163841498e-01
        -8.4778891239423748e-01 -8.2185392017834452e-02
        -2.6037438604532281e-01 -3.3917943282514290e-01</alpha>
      <index>
        171 162 165 179 172 173 174 161 160 159</index></_>
    <_>
      <sv_count>6</sv_count>
      <rho>-4.7711749072671777e-01</rho>
      <alpha>
        1.7496979189322406e+00 1.7339592202935361e-01
        4.0227783172513215e-01 3.1775088929299006e-01
        -1.6774719240362526e+00 -9.6565063794346317e-01</alpha>
      <index>
        170 162 165 179 71 72</index></_>
    <_>
      <sv_count>9</sv_count>
      <rho>1.0752650481797332e-01</rho>
      <alpha>
        4.4601209596193853e-01 1.1183764301879489e+00
        7.1015442554283337e-01 -2.6447554411856217e-01
        -5.4884211350393985e-01 -7.7972791804702801e-01
        -1.3002491083541814e-01 -2.2222506216583401e-01
        -3.2924740302193906e-01</alpha>
      <index>
        142 154 158 172 173 174 161 160 159</index></_>
    <_>
      <sv_count>5</sv_count>
      <rho>-4.2908962926061173e-01</rho>
      <alpha>
        1.3342909701701129e+00 2.7254316924080185e-01
        4.5509631299534387e-01 -1.3222650884195126e+00
        -7.3966536398674521e-01</alpha>
      <index>
        154 155 156 71 72</index></_>
    <_>
      <sv_count>8</sv_count>
      <rho>-4.1946953320918401e-01</rho>
      <alpha>
        3.0772456950742089e-01 3.0895984750455913e-01
        4.8679615211940613e-01 1.1211013490257350e-01
        9.1851967388170877e-02 2.0680210255591996e-01
        -6.0178345225020413e-01 -9.1246132172784666e-01</alpha>
      <index>
        172 173 174 161 160 159 71 72</index></_></decision_functions></opencv_ml_svm>
</opencv_storage>
