<?xml version="1.0"?>
<opencv_storage>
<opencv_ml_svm>
  <format>3</format>
  <svmType>C_SVC</svmType>
  <kernel>
    <type>CHI2</type>
    <gamma>5.</gamma></kernel>
  <C>10.</C>
  <term_criteria><epsilon>5.0000000000000002e-05</epsilon>
    <iterations>80000</iterations></term_criteria>
  <var_count>2</var_count>
  <class_count>5</class_count>
  <class_labels type_id="opencv-matrix">
    <rows>5</rows>
    <cols>1</cols>
    <dt>i</dt>
    <data>
      98 103 111 114 119</data></class_labels>
  <sv_total>2659</sv_total>
  <support_vectors>
    <_>
      5.36312878e-01 9.01960805e-02</_>
    <_>
      5.36312878e-01 9.01960805e-02</_>
    <_>
      5.47486007e-01 8.62745121e-02</_>
    <_>
      5.41899443e-01 8.62745121e-02</_>
    <_>
      5.41899443e-01 9.80392173e-02</_>
    <_>
      5.58659196e-01 1.01960786e-01</_>
    <_>
      5.36312878e-01 9.41176489e-02</_>
    <_>
      5.75419009e-01 8.62745121e-02</_>
    <_>
      5.64245820e-01 9.01960805e-02</_>
    <_>
      5.69832385e-01 9.41176489e-02</_>
    <_>
      5.81005573e-01 1.01960786e-01</_>
    <_>
      5.36312878e-01 9.01960805e-02</_>
    <_>
      5.36312878e-01 9.01960805e-02</_>
    <_>
      5.47486007e-01 8.62745121e-02</_>
    <_>
      5.36312878e-01 9.01960805e-02</_>
    <_>
      5.47486007e-01 9.41176489e-02</_>
    <_>
      5.53072631e-01 1.01960786e-01</_>
    <_>
      5.53072631e-01 9.01960805e-02</_>
    <_>
      5.36312878e-01 9.01960805e-02</_>
    <_>
      5.41899443e-01 8.23529437e-02</_>
    <_>
      5.53072631e-01 7.84313753e-02</_>
    <_>
      5.53072631e-01 7.84313753e-02</_>
    <_>
      5.41899443e-01 8.23529437e-02</_>
    <_>
      5.36312878e-01 9.01960805e-02</_>
    <_>
      5.36312878e-01 9.01960805e-02</_>
    <_>
      5.47486007e-01 9.41176489e-02</_>
    <_>
      5.30726254e-01 8.23529437e-02</_>
    <_>
      5.30726254e-01 8.62745121e-02</_>
    <_>
      5.47486007e-01 9.41176489e-02</_>
    <_>
      5.58659196e-01 8.62745121e-02</_>
    <_>
      5.53072631e-01 8.23529437e-02</_>
    <_>
      5.53072631e-01 7.84313753e-02</_>
    <_>
      5.64245820e-01 8.23529437e-02</_>
    <_>
      5.41899443e-01 8.23529437e-02</_>
    <_>
      5.58659196e-01 9.80392173e-02</_>
    <_>
      5.58659196e-01 8.62745121e-02</_>
    <_>
      5.36312878e-01 9.01960805e-02</_>
    <_>
      5.36312878e-01 9.01960805e-02</_>
    <_>
      5.36312878e-01 9.01960805e-02</_>
    <_>
      5.41899443e-01 8.23529437e-02</_>
    <_>
      5.25139689e-01 7.05882385e-02</_>
    <_>
      5.41899443e-01 8.62745121e-02</_>
    <_>
      5.36312878e-01 9.41176489e-02</_>
    <_>
      5.47486007e-01 9.41176489e-02</_>
    <_>
      5.36312878e-01 9.01960805e-02</_>
    <_>
      5.36312878e-01 7.84313753e-02</_>
    <_>
      5.36312878e-01 9.01960805e-02</_>
    <_>
      5.47486007e-01 9.41176489e-02</_>
    <_>
      5.47486007e-01 9.01960805e-02</_>
    <_>
      5.41899443e-01 8.62745121e-02</_>
    <_>
      5.36312878e-01 9.01960805e-02</_>
    <_>
      5.41899443e-01 8.23529437e-02</_>
    <_>
      5.36312878e-01 9.41176489e-02</_>
    <_>
      5.47486007e-01 9.41176489e-02</_>
    <_>
      5.47486007e-01 9.01960805e-02</_>
    <_>
      5.25139689e-01 8.23529437e-02</_>
    <_>
      5.41899443e-01 8.62745121e-02</_>
    <_>
      5.47486007e-01 9.41176489e-02</_>
    <_>
      5.47486007e-01 9.01960805e-02</_>
    <_>
      5.47486007e-01 9.01960805e-02</_>
    <_>
      5.41899443e-01 8.62745121e-02</_>
    <_>
      5.41899443e-01 8.23529437e-02</_>
    <_>
      5.30726254e-01 8.62745121e-02</_>
    <_>
      5.53072631e-01 9.80392173e-02</_>
    <_>
      5.69832385e-01 1.01960786e-01</_>
    <_>
      5.69832385e-01 9.41176489e-02</_>
    <_>
      5.64245820e-01 9.01960805e-02</_>
    <_>
      5.36312878e-01 9.01960805e-02</_>
    <_>
      5.36312878e-01 9.01960805e-02</_>
    <_>
      5.36312878e-01 9.01960805e-02</_>
    <_>
      5.53072631e-01 9.80392173e-02</_>
    <_>
      5.36312878e-01 9.01960805e-02</_>
    <_>
      5.69832385e-01 9.41176489e-02</_>
    <_>
      5.69832385e-01 1.05882354e-01</_>
    <_>
      5.58659196e-01 1.01960786e-01</_>
    <_>
      5.58659196e-01 9.80392173e-02</_>
    <_>
      5.58659196e-01 9.80392173e-02</_>
    <_>
      5.53072631e-01 9.80392173e-02</_>
    <_>
      5.58659196e-01 1.09803922e-01</_>
    <_>
      5.53072631e-01 9.80392173e-02</_>
    <_>
      5.36312878e-01 9.01960805e-02</_>
    <_>
      5.36312878e-01 9.01960805e-02</_>
    <_>
      5.41899443e-01 8.62745121e-02</_>
    <_>
      5.36312878e-01 9.41176489e-02</_>
    <_>
      5.36312878e-01 9.41176489e-02</_>
    <_>
      5.53072631e-01 1.01960786e-01</_>
    <_>
      5.58659196e-01 1.01960786e-01</_>
    <_>
      5.47486007e-01 9.01960805e-02</_>
    <_>
      5.47486007e-01 8.62745121e-02</_>
    <_>
      5.47486007e-01 9.41176489e-02</_>
    <_>
      5.53072631e-01 9.01960805e-02</_>
    <_>
      5.47486007e-01 9.41176489e-02</_>
    <_>
      5.41899443e-01 8.62745121e-02</_>
    <_>
      5.36312878e-01 9.01960805e-02</_>
    <_>
      5.36312878e-01 9.01960805e-02</_>
    <_>
      5.47486007e-01 9.41176489e-02</_>
    <_>
      5.53072631e-01 9.01960805e-02</_>
    <_>
      5.53072631e-01 9.01960805e-02</_>
    <_>
      5.53072631e-01 9.41176489e-02</_>
    <_>
      5.47486007e-01 1.01960786e-01</_>
    <_>
      5.36312878e-01 9.01960805e-02</_>
    <_>
      5.36312878e-01 9.01960805e-02</_>
    <_>
      5.41899443e-01 8.23529437e-02</_>
    <_>
      5.41899443e-01 8.23529437e-02</_>
    <_>
      5.36312878e-01 9.01960805e-02</_>
    <_>
      5.30726254e-01 9.01960805e-02</_>
    <_>
      5.47486007e-01 8.62745121e-02</_>
    <_>
      5.47486007e-01 9.01960805e-02</_>
    <_>
      5.41899443e-01 8.62745121e-02</_>
    <_>
      5.47486007e-01 8.62745121e-02</_>
    <_>
      5.30726254e-01 9.01960805e-02</_>
    <_>
      5.58659196e-01 1.05882354e-01</_>
    <_>
      5.36312878e-01 9.01960805e-02</_>
    <_>
      5.41899443e-01 8.23529437e-02</_>
    <_>
      5.41899443e-01 8.23529437e-02</_>
    <_>
      5.41899443e-01 8.62745121e-02</_>
    <_>
      5.36312878e-01 9.41176489e-02</_>
    <_>
      5.36312878e-01 9.01960805e-02</_>
    <_>
      5.36312878e-01 9.41176489e-02</_>
    <_>
      5.36312878e-01 9.01960805e-02</_>
    <_>
      5.36312878e-01 9.01960805e-02</_>
    <_>
      5.36312878e-01 9.01960805e-02</_>
    <_>
      5.53072631e-01 9.80392173e-02</_>
    <_>
      5.47486007e-01 9.41176489e-02</_>
    <_>
      5.47486007e-01 9.01960805e-02</_>
    <_>
      5.41899443e-01 8.23529437e-02</_>
    <_>
      5.41899443e-01 8.23529437e-02</_>
    <_>
      5.47486007e-01 9.01960805e-02</_>
    <_>
      5.30726254e-01 8.62745121e-02</_>
    <_>
      5.30726254e-01 9.01960805e-02</_>
    <_>
      5.36312878e-01 9.01960805e-02</_>
    <_>
      5.47486007e-01 9.01960805e-02</_>
    <_>
      5.30726254e-01 8.62745121e-02</_>
    <_>
      5.36312878e-01 9.41176489e-02</_>
    <_>
      5.53072631e-01 9.41176489e-02</_>
    <_>
      5.47486007e-01 9.01960805e-02</_>
    <_>
      5.36312878e-01 9.01960805e-02</_>
    <_>
      5.36312878e-01 9.01960805e-02</_>
    <_>
      5.36312878e-01 9.01960805e-02</_>
    <_>
      5.47486007e-01 8.62745121e-02</_>
    <_>
      5.30726254e-01 1.13725491e-01</_>
    <_>
      5.36312878e-01 9.01960805e-02</_>
    <_>
      5.25139689e-01 7.05882385e-02</_>
    <_>
      5.36312878e-01 9.01960805e-02</_>
    <_>
      5.41899443e-01 8.62745121e-02</_>
    <_>
      5.47486007e-01 9.01960805e-02</_>
    <_>
      5.36312878e-01 9.41176489e-02</_>
    <_>
      5.47486007e-01 1.01960786e-01</_>
    <_>
      5.53072631e-01 9.80392173e-02</_>
    <_>
      5.36312878e-01 9.41176489e-02</_>
    <_>
      5.47486007e-01 9.01960805e-02</_>
    <_>
      5.64245820e-01 7.84313753e-02</_>
    <_>
      5.64245820e-01 7.45098069e-02</_>
    <_>
      5.69832385e-01 7.84313753e-02</_>
    <_>
      5.47486007e-01 9.01960805e-02</_>
    <_>
      5.47486007e-01 8.62745121e-02</_>
    <_>
      5.53072631e-01 7.84313753e-02</_>
    <_>
      5.58659196e-01 8.23529437e-02</_>
    <_>
      5.69832385e-01 9.41176489e-02</_>
    <_>
      5.69832385e-01 9.41176489e-02</_>
    <_>
      5.69832385e-01 9.41176489e-02</_>
    <_>
      5.69832385e-01 7.84313753e-02</_>
    <_>
      5.69832385e-01 7.84313753e-02</_>
    <_>
      5.75419009e-01 9.01960805e-02</_>
    <_>
      5.36312878e-01 9.01960805e-02</_>
    <_>
      5.53072631e-01 7.84313753e-02</_>
    <_>
      5.53072631e-01 7.45098069e-02</_>
    <_>
      5.58659196e-01 8.62745121e-02</_>
    <_>
      5.36312878e-01 9.01960805e-02</_>
    <_>
      5.25139689e-01 7.45098069e-02</_>
    <_>
      5.47486007e-01 8.62745121e-02</_>
    <_>
      5.53072631e-01 7.84313753e-02</_>
    <_>
      5.47486007e-01 8.62745121e-02</_>
    <_>
      5.41899443e-01 8.62745121e-02</_>
    <_>
      5.53072631e-01 9.01960805e-02</_>
    <_>
      5.75419009e-01 8.62745121e-02</_>
    <_>
      5.75419009e-01 8.23529437e-02</_>
    <_>
      5.75419009e-01 8.62745121e-02</_>
    <_>
      5.25139689e-01 7.84313753e-02</_>
    <_>
      5.47486007e-01 8.62745121e-02</_>
    <_>
      5.47486007e-01 8.62745121e-02</_>
    <_>
      5.47486007e-01 8.62745121e-02</_>
    <_>
      5.47486007e-01 8.62745121e-02</_>
    <_>
      5.47486007e-01 8.62745121e-02</_>
    <_>
      5.25139689e-01 7.45098069e-02</_>
    <_>
      5.36312878e-01 7.05882385e-02</_>
    <_>
      5.53072631e-01 6.66666701e-02</_>
    <_>
      5.36312878e-01 6.66666701e-02</_>
    <_>
      5.47486007e-01 8.62745121e-02</_>
    <_>
      5.75419009e-01 8.62745121e-02</_>
    <_>
      5.64245820e-01 9.01960805e-02</_>
    <_>
      5.64245820e-01 9.01960805e-02</_>
    <_>
      5.47486007e-01 8.62745121e-02</_>
    <_>
      5.47486007e-01 8.62745121e-02</_>
    <_>
      5.64245820e-01 7.84313753e-02</_>
    <_>
      5.64245820e-01 7.45098069e-02</_>
    <_>
      5.47486007e-01 8.62745121e-02</_>
    <_>
      5.53072631e-01 9.01960805e-02</_>
    <_>
      5.53072631e-01 9.01960805e-02</_>
    <_>
      5.47486007e-01 7.45098069e-02</_>
    <_>
      5.36312878e-01 7.05882385e-02</_>
    <_>
      5.47486007e-01 8.62745121e-02</_>
    <_>
      5.53072631e-01 9.01960805e-02</_>
    <_>
      5.75419009e-01 9.01960805e-02</_>
    <_>
      5.64245820e-01 9.01960805e-02</_>
    <_>
      5.69832385e-01 9.41176489e-02</_>
    <_>
      5.36312878e-01 9.01960805e-02</_>
    <_>
      5.47486007e-01 8.62745121e-02</_>
    <_>
      5.47486007e-01 8.62745121e-02</_>
    <_>
      5.25139689e-01 7.45098069e-02</_>
    <_>
      5.47486007e-01 8.62745121e-02</_>
    <_>
      5.75419009e-01 9.01960805e-02</_>
    <_>
      5.53072631e-01 9.01960805e-02</_>
    <_>
      5.47486007e-01 8.62745121e-02</_>
    <_>
      5.47486007e-01 8.62745121e-02</_>
    <_>
      5.47486007e-01 9.01960805e-02</_>
    <_>
      5.58659196e-01 8.62745121e-02</_>
    <_>
      5.69832385e-01 7.84313753e-02</_>
    <_>
      5.64245820e-01 7.84313753e-02</_>
    <_>
      5.53072631e-01 9.01960805e-02</_>
    <_>
      5.47486007e-01 8.62745121e-02</_>
    <_>
      5.47486007e-01 8.62745121e-02</_>
    <_>
      5.53072631e-01 7.84313753e-02</_>
    <_>
      5.64245820e-01 7.45098069e-02</_>
    <_>
      5.47486007e-01 8.62745121e-02</_>
    <_>
      5.47486007e-01 8.62745121e-02</_>
    <_>
      5.36312878e-01 7.45098069e-02</_>
    <_>
      5.41899443e-01 8.23529437e-02</_>
    <_>
      5.47486007e-01 8.62745121e-02</_>
    <_>
      5.69832385e-01 9.41176489e-02</_>
    <_>
      5.69832385e-01 9.41176489e-02</_>
    <_>
      5.53072631e-01 9.01960805e-02</_>
    <_>
      5.36312878e-01 9.01960805e-02</_>
    <_>
      5.53072631e-01 9.01960805e-02</_>
    <_>
      5.47486007e-01 8.62745121e-02</_>
    <_>
      5.47486007e-01 8.62745121e-02</_>
    <_>
      5.47486007e-01 8.62745121e-02</_>
    <_>
      5.47486007e-01 9.41176489e-02</_>
    <_>
      5.53072631e-01 9.01960805e-02</_>
    <_>
      5.30726254e-01 7.84313753e-02</_>
    <_>
      5.41899443e-01 8.62745121e-02</_>
    <_>
      5.47486007e-01 8.62745121e-02</_>
    <_>
      5.64245820e-01 9.80392173e-02</_>
    <_>
      5.53072631e-01 7.84313753e-02</_>
    <_>
      5.47486007e-01 8.62745121e-02</_>
    <_>
      5.53072631e-01 9.01960805e-02</_>
    <_>
      5.47486007e-01 8.62745121e-02</_>
    <_>
      5.53072631e-01 9.41176489e-02</_>
    <_>
      5.53072631e-01 9.01960805e-02</_>
    <_>
      5.47486007e-01 8.62745121e-02</_>
    <_>
      5.47486007e-01 8.62745121e-02</_>
    <_>
      5.47486007e-01 9.41176489e-02</_>
    <_>
      5.53072631e-01 9.80392173e-02</_>
    <_>
      5.47486007e-01 9.01960805e-02</_>
    <_>
      5.47486007e-01 8.62745121e-02</_>
    <_>
      5.58659196e-01 1.01960786e-01</_>
    <_>
      5.64245820e-01 1.01960786e-01</_>
    <_>
      5.64245820e-01 9.80392173e-02</_>
    <_>
      5.64245820e-01 9.41176489e-02</_>
    <_>
      5.69832385e-01 9.41176489e-02</_>
    <_>
      5.75419009e-01 8.23529437e-02</_>
    <_>
      5.53072631e-01 9.41176489e-02</_>
    <_>
      5.53072631e-01 9.01960805e-02</_>
    <_>
      5.47486007e-01 8.62745121e-02</_>
    <_>
      5.64245820e-01 7.45098069e-02</_>
    <_>
      5.47486007e-01 8.62745121e-02</_>
    <_>
      5.64245820e-01 9.41176489e-02</_>
    <_>
      5.47486007e-01 9.41176489e-02</_>
    <_>
      5.30726254e-01 8.62745121e-02</_>
    <_>
      5.25139689e-01 8.23529437e-02</_>
    <_>
      5.47486007e-01 8.62745121e-02</_>
    <_>
      5.64245820e-01 9.41176489e-02</_>
    <_>
      5.69832385e-01 1.05882354e-01</_>
    <_>
      5.64245820e-01 9.80392173e-02</_>
    <_>
      5.69832385e-01 9.41176489e-02</_>
    <_>
      5.47486007e-01 8.62745121e-02</_>
    <_>
      5.47486007e-01 8.62745121e-02</_>
    <_>
      5.47486007e-01 8.62745121e-02</_>
    <_>
      5.47486007e-01 8.62745121e-02</_>
    <_>
      5.47486007e-01 8.62745121e-02</_>
    <_>
      5.64245820e-01 9.41176489e-02</_>
    <_>
      5.64245820e-01 9.80392173e-02</_>
    <_>
      5.53072631e-01 9.41176489e-02</_>
    <_>
      5.47486007e-01 9.01960805e-02</_>
    <_>
      5.47486007e-01 8.62745121e-02</_>
    <_>
      5.53072631e-01 9.01960805e-02</_>
    <_>
      5.69832385e-01 9.41176489e-02</_>
    <_>
      5.53072631e-01 9.80392173e-02</_>
    <_>
      5.53072631e-01 9.01960805e-02</_>
    <_>
      5.53072631e-01 9.01960805e-02</_>
    <_>
      5.64245820e-01 9.41176489e-02</_>
    <_>
      5.47486007e-01 8.62745121e-02</_>
    <_>
      5.47486007e-01 8.62745121e-02</_>
    <_>
      5.47486007e-01 8.62745121e-02</_>
    <_>
      5.47486007e-01 8.62745121e-02</_>
    <_>
      5.53072631e-01 9.01960805e-02</_>
    <_>
      5.58659196e-01 1.01960786e-01</_>
    <_>
      5.64245820e-01 9.41176489e-02</_>
    <_>
      5.64245820e-01 9.41176489e-02</_>
    <_>
      5.47486007e-01 8.62745121e-02</_>
    <_>
      5.64245820e-01 9.41176489e-02</_>
    <_>
      5.69832385e-01 9.41176489e-02</_>
    <_>
      5.69832385e-01 8.23529437e-02</_>
    <_>
      5.64245820e-01 7.84313753e-02</_>
    <_>
      5.58659196e-01 8.62745121e-02</_>
    <_>
      5.64245820e-01 9.41176489e-02</_>
    <_>
      5.64245820e-01 9.41176489e-02</_>
    <_>
      5.64245820e-01 9.41176489e-02</_>
    <_>
      5.64245820e-01 9.41176489e-02</_>
    <_>
      5.36312878e-01 9.01960805e-02</_>
    <_>
      5.47486007e-01 8.62745121e-02</_>
    <_>
      5.53072631e-01 9.80392173e-02</_>
    <_>
      5.64245820e-01 9.41176489e-02</_>
    <_>
      5.64245820e-01 9.41176489e-02</_>
    <_>
      5.64245820e-01 9.41176489e-02</_>
    <_>
      5.53072631e-01 9.01960805e-02</_>
    <_>
      5.64245820e-01 9.01960805e-02</_>
    <_>
      5.69832385e-01 9.41176489e-02</_>
    <_>
      5.53072631e-01 9.41176489e-02</_>
    <_>
      5.69832385e-01 8.23529437e-02</_>
    <_>
      5.47486007e-01 9.01960805e-02</_>
    <_>
      5.47486007e-01 8.62745121e-02</_>
    <_>
      5.53072631e-01 9.01960805e-02</_>
    <_>
      5.69832385e-01 9.41176489e-02</_>
    <_>
      5.75419009e-01 9.80392173e-02</_>
    <_>
      5.47486007e-01 8.62745121e-02</_>
    <_>
      5.58659196e-01 9.80392173e-02</_>
    <_>
      5.64245820e-01 9.41176489e-02</_>
    <_>
      5.64245820e-01 9.41176489e-02</_>
    <_>
      5.53072631e-01 9.80392173e-02</_>
    <_>
      5.19553065e-01 8.62745121e-02</_>
    <_>
      5.30726254e-01 8.23529437e-02</_>
    <_>
      5.41899443e-01 8.62745121e-02</_>
    <_>
      5.47486007e-01 8.62745121e-02</_>
    <_>
      5.47486007e-01 8.62745121e-02</_>
    <_>
      5.47486007e-01 8.62745121e-02</_>
    <_>
      5.64245820e-01 7.84313753e-02</_>
    <_>
      5.53072631e-01 9.01960805e-02</_>
    <_>
      5.64245820e-01 9.41176489e-02</_>
    <_>
      5.64245820e-01 9.41176489e-02</_>
    <_>
      5.64245820e-01 9.41176489e-02</_>
    <_>
      5.53072631e-01 9.41176489e-02</_>
    <_>
      5.58659196e-01 9.80392173e-02</_>
    <_>
      5.64245820e-01 1.01960786e-01</_>
    <_>
      5.25139689e-01 9.80392173e-02</_>
    <_>
      5.25139689e-01 8.23529437e-02</_>
    <_>
      5.13966501e-01 8.23529437e-02</_>
    <_>
      5.41899443e-01 8.62745121e-02</_>
    <_>
      5.64245820e-01 9.41176489e-02</_>
    <_>
      5.53072631e-01 9.01960805e-02</_>
    <_>
      5.53072631e-01 9.01960805e-02</_>
    <_>
      5.64245820e-01 7.84313753e-02</_>
    <_>
      5.58659196e-01 8.23529437e-02</_>
    <_>
      5.64245820e-01 9.41176489e-02</_>
    <_>
      5.64245820e-01 9.41176489e-02</_>
    <_>
      3.46368700e-01 1.</_>
    <_>
      3.46368700e-01 1.</_>
    <_>
      3.40782136e-01 1.</_>
    <_>
      3.40782136e-01 1.</_>
    <_>
      3.40782136e-01 1.</_>
    <_>
      3.46368700e-01 1.</_>
    <_>
      3.46368700e-01 1.</_>
    <_>
      3.40782136e-01 1.</_>
    <_>
      3.40782136e-01 1.</_>
    <_>
      3.46368700e-01 1.</_>
    <_>
      3.46368700e-01 1.</_>
    <_>
      3.46368700e-01 1.</_>
    <_>
      3.46368700e-01 1.</_>
    <_>
      3.46368700e-01 1.</_>
    <_>
      3.40782136e-01 1.</_>
    <_>
      3.46368700e-01 1.</_>
    <_>
      3.46368700e-01 9.96078432e-01</_>
    <_>
      3.46368700e-01 9.96078432e-01</_>
    <_>
      3.40782136e-01 9.88235295e-01</_>
    <_>
      3.46368700e-01 9.84313726e-01</_>
    <_>
      3.46368700e-01 9.96078432e-01</_>
    <_>
      3.46368700e-01 1.</_>
    <_>
      3.46368700e-01 1.</_>
    <_>
      3.46368700e-01 1.</_>
    <_>
      3.46368700e-01 1.</_>
    <_>
      3.46368700e-01 9.96078432e-01</_>
    <_>
      3.46368700e-01 9.96078432e-01</_>
    <_>
      3.40782136e-01 1.</_>
    <_>
      3.40782136e-01 1.</_>
    <_>
      3.40782136e-01 9.88235295e-01</_>
    <_>
      3.40782136e-01 9.84313726e-01</_>
    <_>
      3.40782136e-01 9.84313726e-01</_>
    <_>
      3.40782136e-01 9.96078432e-01</_>
    <_>
      3.46368700e-01 9.96078432e-01</_>
    <_>
      3.46368700e-01 9.88235295e-01</_>
    <_>
      3.40782136e-01 9.76470590e-01</_>
    <_>
      3.40782136e-01 1.</_>
    <_>
      3.46368700e-01 1.</_>
    <_>
      3.40782136e-01 9.96078432e-01</_>
    <_>
      3.40782136e-01 1.</_>
    <_>
      3.46368700e-01 1.</_>
    <_>
      3.46368700e-01 9.96078432e-01</_>
    <_>
      3.40782136e-01 1.</_>
    <_>
      3.40782136e-01 9.88235295e-01</_>
    <_>
      3.40782136e-01 9.88235295e-01</_>
    <_>
      3.40782136e-01 9.96078432e-01</_>
    <_>
      3.40782136e-01 9.76470590e-01</_>
    <_>
      3.40782136e-01 9.60784316e-01</_>
    <_>
      3.40782136e-01 9.96078432e-01</_>
    <_>
      3.40782136e-01 1.</_>
    <_>
      3.35195541e-01 9.96078432e-01</_>
    <_>
      3.40782136e-01 9.88235295e-01</_>
    <_>
      3.46368700e-01 1.</_>
    <_>
      3.40782136e-01 9.84313726e-01</_>
    <_>
      3.40782136e-01 9.88235295e-01</_>
    <_>
      3.40782136e-01 9.76470590e-01</_>
    <_>
      3.40782136e-01 1.</_>
    <_>
      3.40782136e-01 1.</_>
    <_>
      3.40782136e-01 9.88235295e-01</_>
    <_>
      3.40782136e-01 9.76470590e-01</_>
    <_>
      3.46368700e-01 1.</_>
    <_>
      3.40782136e-01 9.96078432e-01</_>
    <_>
      3.40782136e-01 1.</_>
    <_>
      3.40782136e-01 9.72549021e-01</_>
    <_>
      3.40782136e-01 9.96078432e-01</_>
    <_>
      3.40782136e-01 9.72549021e-01</_>
    <_>
      3.40782136e-01 1.</_>
    <_>
      3.46368700e-01 1.</_>
    <_>
      3.46368700e-01 9.96078432e-01</_>
    <_>
      3.46368700e-01 9.88235295e-01</_>
    <_>
      3.40782136e-01 9.84313726e-01</_>
    <_>
      3.46368700e-01 9.96078432e-01</_>
    <_>
      3.40782136e-01 1.</_>
    <_>
      3.40782136e-01 1.</_>
    <_>
      3.40782136e-01 9.96078432e-01</_>
    <_>
      3.46368700e-01 9.72549021e-01</_>
    <_>
      3.40782136e-01 9.84313726e-01</_>
    <_>
      3.46368700e-01 1.</_>
    <_>
      3.40782136e-01 9.96078432e-01</_>
    <_>
      3.46368700e-01 1.</_>
    <_>
      3.40782136e-01 1.</_>
    <_>
      3.40782136e-01 1.</_>
    <_>
      3.40782136e-01 1.</_>
    <_>
      3.40782136e-01 1.</_>
    <_>
      3.46368700e-01 1.</_>
    <_>
      3.46368700e-01 9.96078432e-01</_>
    <_>
      3.51955295e-01 9.96078432e-01</_>
    <_>
      3.46368700e-01 1.</_>
    <_>
      3.46368700e-01 1.</_>
    <_>
      3.40782136e-01 9.96078432e-01</_>
    <_>
      3.46368700e-01 9.96078432e-01</_>
    <_>
      3.46368700e-01 1.</_>
    <_>
      3.46368700e-01 9.96078432e-01</_>
    <_>
      3.40782136e-01 1.</_>
    <_>
      3.40782136e-01 9.96078432e-01</_>
    <_>
      3.46368700e-01 1.</_>
    <_>
      3.46368700e-01 1.</_>
    <_>
      3.51955295e-01 9.96078432e-01</_>
    <_>
      3.51955295e-01 1.</_>
    <_>
      3.51955295e-01 1.</_>
    <_>
      3.40782136e-01 9.84313726e-01</_>
    <_>
      3.46368700e-01 1.</_>
    <_>
      3.40782136e-01 1.</_>
    <_>
      3.46368700e-01 9.96078432e-01</_>
    <_>
      3.46368700e-01 1.</_>
    <_>
      3.40782136e-01 1.</_>
    <_>
      3.40782136e-01 1.</_>
    <_>
      3.40782136e-01 1.</_>
    <_>
      3.40782136e-01 1.</_>
    <_>
      3.40782136e-01 1.</_>
    <_>
      3.40782136e-01 9.96078432e-01</_>
    <_>
      3.40782136e-01 9.96078432e-01</_>
    <_>
      3.40782136e-01 1.</_>
    <_>
      3.51955295e-01 1.</_>
    <_>
      3.51955295e-01 9.88235295e-01</_>
    <_>
      3.46368700e-01 9.88235295e-01</_>
    <_>
      3.40782136e-01 9.96078432e-01</_>
    <_>
      3.40782136e-01 1.</_>
    <_>
      3.40782136e-01 1.</_>
    <_>
      3.46368700e-01 1.</_>
    <_>
      3.46368700e-01 1.</_>
    <_>
      3.46368700e-01 1.</_>
    <_>
      3.46368700e-01 1.</_>
    <_>
      3.46368700e-01 1.</_>
    <_>
      3.40782136e-01 1.</_>
    <_>
      3.40782136e-01 9.96078432e-01</_>
    <_>
      3.40782136e-01 9.96078432e-01</_>
    <_>
      3.46368700e-01 9.96078432e-01</_>
    <_>
      3.46368700e-01 9.96078432e-01</_>
    <_>
      3.46368700e-01 9.96078432e-01</_>
    <_>
      3.40782136e-01 1.</_>
    <_>
      3.40782136e-01 1.</_>
    <_>
      3.40782136e-01 1.</_>
    <_>
      3.46368700e-01 1.</_>
    <_>
      3.46368700e-01 1.</_>
    <_>
      3.46368700e-01 1.</_>
    <_>
      3.46368700e-01 1.</_>
    <_>
      3.46368700e-01 9.96078432e-01</_>
    <_>
      3.40782136e-01 1.</_>
    <_>
      3.40782136e-01 1.</_>
    <_>
      3.46368700e-01 1.</_>
    <_>
      3.46368700e-01 9.96078432e-01</_>
    <_>
      3.46368700e-01 9.96078432e-01</_>
    <_>
      3.40782136e-01 9.88235295e-01</_>
    <_>
      3.40782136e-01 1.</_>
    <_>
      3.40782136e-01 1.</_>
    <_>
      3.46368700e-01 1.</_>
    <_>
      3.46368700e-01 1.</_>
    <_>
      3.46368700e-01 1.</_>
    <_>
      3.46368700e-01 9.96078432e-01</_>
    <_>
      3.46368700e-01 9.96078432e-01</_>
    <_>
      3.46368700e-01 1.</_>
    <_>
      3.40782136e-01 1.</_>
    <_>
      3.40782136e-01 1.</_>
    <_>
      3.40782136e-01 1.</_>
    <_>
      3.46368700e-01 9.96078432e-01</_>
    <_>
      3.46368700e-01 9.96078432e-01</_>
    <_>
      3.40782136e-01 9.60784316e-01</_>
    <_>
      3.40782136e-01 9.76470590e-01</_>
    <_>
      3.40782136e-01 9.76470590e-01</_>
    <_>
      3.40782136e-01 9.76470590e-01</_>
    <_>
      3.40782136e-01 1.</_>
    <_>
      3.46368700e-01 9.96078432e-01</_>
    <_>
      3.40782136e-01 9.96078432e-01</_>
    <_>
      3.40782136e-01 9.96078432e-01</_>
    <_>
      3.40782136e-01 9.96078432e-01</_>
    <_>
      3.40782136e-01 1.</_>
    <_>
      3.46368700e-01 1.</_>
    <_>
      3.40782136e-01 1.</_>
    <_>
      3.40782136e-01 1.</_>
    <_>
      3.40782136e-01 1.</_>
    <_>
      3.40782136e-01 1.</_>
    <_>
      3.40782136e-01 9.72549021e-01</_>
    <_>
      3.40782136e-01 9.88235295e-01</_>
    <_>
      3.40782136e-01 9.88235295e-01</_>
    <_>
      3.40782136e-01 9.88235295e-01</_>
    <_>
      3.40782136e-01 1.</_>
    <_>
      3.40782136e-01 9.88235295e-01</_>
    <_>
      3.40782136e-01 9.88235295e-01</_>
    <_>
      3.40782136e-01 1.</_>
    <_>
      3.46368700e-01 1.</_>
    <_>
      3.46368700e-01 1.</_>
    <_>
      3.46368700e-01 1.</_>
    <_>
      3.51955295e-01 9.96078432e-01</_>
    <_>
      3.51955295e-01 9.88235295e-01</_>
    <_>
      3.51955295e-01 9.96078432e-01</_>
    <_>
      3.46368700e-01 1.</_>
    <_>
      5.58659201e-03 1.</_>
    <_>
      5.58659201e-03 1.</_>
    <_>
      5.58659201e-03 1.</_>
    <_>
      1.11731840e-02 1.</_>
    <_>
      5.58659201e-03 1.</_>
    <_>
      5.58659201e-03 1.</_>
    <_>
      5.58659201e-03 1.</_>
    <_>
      5.58659201e-03 1.</_>
    <_>
      5.58659201e-03 1.</_>
    <_>
      5.58659201e-03 1.</_>
    <_>
      5.58659201e-03 1.</_>
    <_>
      5.58659201e-03 1.</_>
    <_>
      1.11731840e-02 1.</_>
    <_>
      5.58659201e-03 1.</_>
    <_>
      5.58659201e-03 1.</_>
    <_>
      5.58659201e-03 1.</_>
    <_>
      5.58659201e-03 1.</_>
    <_>
      1.11731840e-02 1.</_>
    <_>
      5.58659201e-03 1.</_>
    <_>
      1.11731840e-02 1.</_>
    <_>
      5.58659201e-03 1.</_>
    <_>
      1.11731840e-02 1.</_>
    <_>
      5.58659201e-03 1.</_>
    <_>
      5.58659201e-03 1.</_>
    <_>
      5.58659201e-03 1.</_>
    <_>
      5.58659201e-03 1.</_>
    <_>
      5.58659201e-03 1.</_>
    <_>
      5.58659201e-03 1.</_>
    <_>
      1.11731840e-02 1.</_>
    <_>
      5.58659201e-03 1.</_>
    <_>
      5.58659201e-03 1.</_>
    <_>
      5.58659201e-03 1.</_>
    <_>
      5.58659201e-03 1.</_>
    <_>
      1.11731840e-02 1.</_>
    <_>
      5.58659201e-03 1.</_>
    <_>
      5.58659201e-03 1.</_>
    <_>
      5.58659201e-03 1.</_>
    <_>
      5.58659201e-03 1.</_>
    <_>
      5.58659201e-03 1.</_>
    <_>
      5.58659201e-03 1.</_>
    <_>
      1.11731840e-02 1.</_>
    <_>
      1.11731840e-02 1.</_>
    <_>
      5.58659201e-03 1.</_>
    <_>
      1.11731840e-02 1.</_>
    <_>
      5.58659201e-03 1.</_>
    <_>
      5.58659201e-03 1.</_>
    <_>
      5.58659201e-03 1.</_>
    <_>
      5.58659201e-03 1.</_>
    <_>
      5.58659201e-03 1.</_>
    <_>
      5.58659201e-03 1.</_>
    <_>
      5.58659201e-03 1.</_>
    <_>
      5.58659201e-03 1.</_>
    <_>
      5.58659201e-03 1.</_>
    <_>
      5.58659201e-03 1.</_>
    <_>
      1.11731840e-02 1.</_>
    <_>
      5.58659201e-03 1.</_>
    <_>
      5.58659201e-03 1.</_>
    <_>
      5.58659201e-03 1.</_>
    <_>
      5.58659201e-03 1.</_>
    <_>
      5.58659201e-03 1.</_>
    <_>
      5.58659201e-03 1.</_>
    <_>
      5.58659201e-03 1.</_>
    <_>
      5.58659201e-03 1.</_>
    <_>
      5.58659201e-03 1.</_>
    <_>
      5.58659201e-03 1.</_>
    <_>
      5.58659201e-03 1.</_>
    <_>
      1.11731840e-02 1.</_>
    <_>
      5.58659201e-03 1.</_>
    <_>
      5.58659201e-03 1.</_>
    <_>
      5.58659201e-03 1.</_>
    <_>
      5.58659201e-03 1.</_>
    <_>
      5.58659201e-03 1.</_>
    <_>
      5.58659201e-03 1.</_>
    <_>
      5.58659201e-03 1.</_>
    <_>
      5.58659201e-03 1.</_>
    <_>
      5.58659201e-03 1.</_>
    <_>
      5.58659201e-03 1.</_>
    <_>
      5.58659201e-03 1.</_>
    <_>
      5.58659201e-03 1.</_>
    <_>
      5.58659201e-03 1.</_>
    <_>
      1.11731840e-02 1.</_>
    <_>
      1.11731840e-02 1.</_>
    <_>
      5.58659201e-03 1.</_>
    <_>
      5.58659201e-03 1.</_>
    <_>
      1.11731840e-02 1.</_>
    <_>
      5.58659201e-03 1.</_>
    <_>
      1.11731840e-02 1.</_>
    <_>
      1.11731840e-02 1.</_>
    <_>
      5.58659201e-03 1.</_>
    <_>
      5.58659201e-03 1.</_>
    <_>
      5.58659201e-03 1.</_>
    <_>
      5.58659201e-03 1.</_>
    <_>
      5.58659201e-03 1.</_>
    <_>
      5.58659201e-03 1.</_>
    <_>
      5.58659201e-03 1.</_>
    <_>
      1.11731840e-02 1.</_>
    <_>
      5.58659201e-03 1.</_>
    <_>
      5.58659201e-03 1.</_>
    <_>
      5.58659201e-03 1.</_>
    <_>
      1.11731840e-02 1.</_>
    <_>
      1.11731840e-02 1.</_>
    <_>
      1.11731840e-02 1.</_>
    <_>
      1.11731840e-02 1.</_>
    <_>
      5.58659201e-03 1.</_>
    <_>
      5.58659201e-03 1.</_>
    <_>
      5.58659201e-03 1.</_>
    <_>
      5.58659201e-03 1.</_>
    <_>
      5.58659201e-03 1.</_>
    <_>
      5.58659201e-03 1.</_>
    <_>
      5.58659201e-03 1.</_>
    <_>
      1.11731840e-02 1.</_>
    <_>
      1.11731840e-02 1.</_>
    <_>
      1.11731840e-02 1.</_>
    <_>
      1.11731840e-02 1.</_>
    <_>
      1.11731840e-02 1.</_>
    <_>
      1.11731840e-02 1.</_>
    <_>
      5.58659201e-03 1.</_>
    <_>
      5.58659201e-03 1.</_>
    <_>
      5.58659201e-03 1.</_>
    <_>
      5.58659201e-03 1.</_>
    <_>
      1.11731840e-02 1.</_>
    <_>
      5.58659201e-03 1.</_>
    <_>
      5.58659201e-03 1.</_>
    <_>
      5.58659201e-03 1.</_>
    <_>
      5.58659201e-03 1.</_>
    <_>
      1.11731840e-02 1.</_>
    <_>
      1.11731840e-02 1.</_>
    <_>
      1.11731840e-02 1.</_>
    <_>
      1.11731840e-02 1.</_>
    <_>
      1.11731840e-02 1.</_>
    <_>
      5.58659201e-03 1.</_>
    <_>
      5.58659201e-03 1.</_>
    <_>
      5.58659201e-03 1.</_>
    <_>
      5.58659201e-03 1.</_>
    <_>
      1.11731840e-02 1.</_>
    <_>
      1.11731840e-02 1.</_>
    <_>
      1.11731840e-02 1.</_>
    <_>
      5.58659201e-03 1.</_>
    <_>
      5.58659201e-03 1.</_>
    <_>
      5.58659201e-03 1.</_>
    <_>
      1.11731840e-02 1.</_>
    <_>
      5.58659201e-03 1.</_>
    <_>
      5.58659201e-03 1.</_>
    <_>
      1.11731840e-02 1.</_>
    <_>
      1.11731840e-02 1.</_>
    <_>
      5.58659201e-03 1.</_>
    <_>
      5.58659201e-03 1.</_>
    <_>
      0. 1.</_>
    <_>
      5.58659201e-03 1.</_>
    <_>
      1.11731840e-02 1.</_>
    <_>
      1.11731840e-02 1.</_>
    <_>
      1.11731840e-02 1.</_>
    <_>
      5.58659201e-03 1.</_>
    <_>
      1.11731840e-02 1.</_>
    <_>
      1.11731840e-02 1.</_>
    <_>
      1.11731840e-02 1.</_>
    <_>
      5.58659201e-03 1.</_>
    <_>
      1.11731840e-02 1.</_>
    <_>
      1.11731840e-02 1.</_>
    <_>
      1.11731840e-02 1.</_>
    <_>
      5.58659201e-03 1.</_>
    <_>
      5.58659201e-03 1.</_>
    <_>
      5.58659201e-03 1.</_>
    <_>
      5.58659201e-03 1.</_>
    <_>
      5.58659201e-03 1.</_>
    <_>
      5.58659201e-03 1.</_>
    <_>
      1.11731840e-02 1.</_>
    <_>
      5.58659201e-03 1.</_>
    <_>
      5.58659201e-03 1.</_>
    <_>
      1.11731840e-02 1.</_>
    <_>
      1.11731840e-02 1.</_>
    <_>
      1.11731840e-02 1.</_>
    <_>
      1.11731840e-02 1.</_>
    <_>
      1.11731840e-02 1.</_>
    <_>
      1.11731840e-02 1.</_>
    <_>
      5.58659201e-03 1.</_>
    <_>
      1.11731840e-02 1.</_>
    <_>
      5.58659201e-03 1.</_>
    <_>
      0. 1.</_>
    <_>
      5.58659201e-03 1.</_>
    <_>
      5.58659201e-03 1.</_>
    <_>
      5.58659201e-03 1.</_>
    <_>
      5.58659201e-03 1.</_>
    <_>
      5.58659201e-03 1.</_>
    <_>
      1.11731840e-02 1.</_>
    <_>
      5.58659201e-03 1.</_>
    <_>
      5.58659201e-03 1.</_>
    <_>
      1.11731840e-02 1.</_>
    <_>
      1.11731840e-02 1.</_>
    <_>
      1.11731840e-02 1.</_>
    <_>
      5.58659201e-03 1.</_>
    <_>
      1.11731840e-02 1.</_>
    <_>
      5.58659201e-03 1.</_>
    <_>
      0. 1.</_>
    <_>
      0. 1.</_>
    <_>
      5.58659201e-03 1.</_>
    <_>
      5.58659201e-03 1.</_>
    <_>
      5.58659201e-03 1.</_>
    <_>
      5.58659201e-03 1.</_>
    <_>
      5.58659201e-03 1.</_>
    <_>
      5.58659201e-03 1.</_>
    <_>
      1.11731840e-02 1.</_>
    <_>
      1.11731840e-02 1.</_>
    <_>
      1.11731840e-02 1.</_>
    <_>
      1.11731840e-02 1.</_>
    <_>
      1.11731840e-02 1.</_>
    <_>
      1.11731840e-02 1.</_>
    <_>
      1.11731840e-02 1.</_>
    <_>
      1.11731840e-02 1.</_>
    <_>
      1.11731840e-02 1.</_>
    <_>
      1.67597774e-02 1.</_>
    <_>
      1.67597774e-02 1.</_>
    <_>
      1.67597774e-02 1.</_>
    <_>
      1.67597774e-02 1.</_>
    <_>
      1.11731840e-02 1.</_>
    <_>
      1.11731840e-02 1.</_>
    <_>
      1.67597774e-02 1.</_>
    <_>
      1.11731840e-02 1.</_>
    <_>
      1.11731840e-02 1.</_>
    <_>
      1.11731840e-02 1.</_>
    <_>
      1.11731840e-02 1.</_>
    <_>
      1.11731840e-02 1.</_>
    <_>
      1.11731840e-02 1.</_>
    <_>
      1.11731840e-02 1.</_>
    <_>
      1.11731840e-02 1.</_>
    <_>
      1.11731840e-02 1.</_>
    <_>
      1.11731840e-02 1.</_>
    <_>
      1.11731840e-02 1.</_>
    <_>
      1.11731840e-02 1.</_>
    <_>
      1.11731840e-02 1.</_>
    <_>
      1.11731840e-02 1.</_>
    <_>
      1.11731840e-02 1.</_>
    <_>
      1.11731840e-02 1.</_>
    <_>
      1.67597774e-02 1.</_>
    <_>
      1.11731840e-02 1.</_>
    <_>
      1.11731840e-02 1.</_>
    <_>
      1.11731840e-02 1.</_>
    <_>
      1.11731840e-02 1.</_>
    <_>
      1.11731840e-02 1.</_>
    <_>
      1.67597774e-02 1.</_>
    <_>
      1.11731840e-02 1.</_>
    <_>
      5.58659201e-03 1.</_>
    <_>
      1.11731840e-02 1.</_>
    <_>
      1.11731840e-02 1.</_>
    <_>
      1.11731840e-02 1.</_>
    <_>
      1.11731840e-02 1.</_>
    <_>
      1.11731840e-02 1.</_>
    <_>
      1.11731840e-02 1.</_>
    <_>
      1.11731840e-02 1.</_>
    <_>
      1.67597774e-02 1.</_>
    <_>
      1.11731840e-02 1.</_>
    <_>
      1.11731840e-02 1.</_>
    <_>
      1.11731840e-02 1.</_>
    <_>
      1.11731840e-02 1.</_>
    <_>
      1.11731840e-02 1.</_>
    <_>
      1.11731840e-02 1.</_>
    <_>
      1.11731840e-02 1.</_>
    <_>
      1.11731840e-02 1.</_>
    <_>
      1.11731840e-02 1.</_>
    <_>
      1.11731840e-02 1.</_>
    <_>
      1.11731840e-02 1.</_>
    <_>
      1.11731840e-02 1.</_>
    <_>
      1.11731840e-02 1.</_>
    <_>
      1.11731840e-02 1.</_>
    <_>
      1.11731840e-02 1.</_>
    <_>
      1.67597774e-02 1.</_>
    <_>
      1.11731840e-02 1.</_>
    <_>
      1.11731840e-02 1.</_>
    <_>
      1.11731840e-02 1.</_>
    <_>
      1.11731840e-02 1.</_>
    <_>
      1.11731840e-02 1.</_>
    <_>
      1.11731840e-02 1.</_>
    <_>
      1.11731840e-02 1.</_>
    <_>
      1.11731840e-02 1.</_>
    <_>
      1.11731840e-02 1.</_>
    <_>
      1.11731840e-02 1.</_>
    <_>
      1.67597774e-02 1.</_>
    <_>
      1.11731840e-02 1.</_>
    <_>
      1.11731840e-02 1.</_>
    <_>
      1.11731840e-02 1.</_>
    <_>
      1.67597774e-02 1.</_>
    <_>
      1.11731840e-02 1.</_>
    <_>
      1.11731840e-02 1.</_>
    <_>
      1.11731840e-02 1.</_>
    <_>
      1.11731840e-02 1.</_>
    <_>
      1.11731840e-02 1.</_>
    <_>
      1.11731840e-02 1.</_>
    <_>
      1.11731840e-02 1.</_>
    <_>
      1.11731840e-02 1.</_>
    <_>
      1.11731840e-02 1.</_>
    <_>
      1.67597774e-02 1.</_>
    <_>
      1.67597774e-02 1.</_>
    <_>
      1.11731840e-02 1.</_>
    <_>
      1.11731840e-02 1.</_>
    <_>
      5.58659201e-03 1.</_>
    <_>
      1.11731840e-02 1.</_>
    <_>
      1.11731840e-02 1.</_>
    <_>
      1.11731840e-02 1.</_>
    <_>
      1.11731840e-02 1.</_>
    <_>
      1.11731840e-02 1.</_>
    <_>
      1.11731840e-02 1.</_>
    <_>
      1.11731840e-02 1.</_>
    <_>
      1.11731840e-02 1.</_>
    <_>
      1.11731840e-02 1.</_>
    <_>
      1.11731840e-02 1.</_>
    <_>
      1.11731840e-02 1.</_>
    <_>
      1.11731840e-02 1.</_>
    <_>
      1.11731840e-02 1.</_>
    <_>
      1.11731840e-02 1.</_>
    <_>
      5.58659201e-03 1.</_>
    <_>
      1.11731840e-02 1.</_>
    <_>
      1.11731840e-02 1.</_>
    <_>
      1.11731840e-02 1.</_>
    <_>
      1.11731840e-02 1.</_>
    <_>
      1.11731840e-02 1.</_>
    <_>
      1.11731840e-02 1.</_>
    <_>
      1.11731840e-02 1.</_>
    <_>
      1.11731840e-02 1.</_>
    <_>
      1.11731840e-02 1.</_>
    <_>
      1.11731840e-02 1.</_>
    <_>
      1.11731840e-02 1.</_>
    <_>
      1.11731840e-02 1.</_>
    <_>
      1.11731840e-02 1.</_>
    <_>
      1.11731840e-02 1.</_>
    <_>
      1.11731840e-02 1.</_>
    <_>
      1.11731840e-02 1.</_>
    <_>
      1.11731840e-02 1.</_>
    <_>
      1.11731840e-02 1.</_>
    <_>
      1.11731840e-02 1.</_>
    <_>
      1.11731840e-02 1.</_>
    <_>
      1.11731840e-02 1.</_>
    <_>
      1.11731840e-02 1.</_>
    <_>
      1.11731840e-02 1.</_>
    <_>
      1.11731840e-02 1.</_>
    <_>
      1.11731840e-02 1.</_>
    <_>
      1.11731840e-02 1.</_>
    <_>
      1.11731840e-02 1.</_>
    <_>
      1.11731840e-02 1.</_>
    <_>
      1.11731840e-02 1.</_>
    <_>
      1.11731840e-02 1.</_>
    <_>
      1.11731840e-02 1.</_>
    <_>
      1.11731840e-02 1.</_>
    <_>
      1.11731840e-02 1.</_>
    <_>
      1.11731840e-02 1.</_>
    <_>
      1.11731840e-02 1.</_>
    <_>
      1.11731840e-02 1.</_>
    <_>
      1.11731840e-02 1.</_>
    <_>
      5.58659201e-03 1.</_>
    <_>
      1.11731840e-02 1.</_>
    <_>
      1.11731840e-02 1.</_>
    <_>
      1.11731840e-02 1.</_>
    <_>
      1.11731840e-02 1.</_>
    <_>
      1.11731840e-02 1.</_>
    <_>
      1.11731840e-02 1.</_>
    <_>
      1.11731840e-02 1.</_>
    <_>
      1.11731840e-02 1.</_>
    <_>
      1.11731840e-02 1.</_>
    <_>
      1.11731840e-02 1.</_>
    <_>
      1.11731840e-02 1.</_>
    <_>
      1.11731840e-02 1.</_>
    <_>
      1.11731840e-02 1.</_>
    <_>
      1.11731840e-02 1.</_>
    <_>
      1.11731840e-02 1.</_>
    <_>
      1.11731840e-02 1.</_>
    <_>
      1.11731840e-02 1.</_>
    <_>
      1.11731840e-02 1.</_>
    <_>
      1.11731840e-02 1.</_>
    <_>
      1.11731840e-02 1.</_>
    <_>
      1.11731840e-02 1.</_>
    <_>
      1.11731840e-02 1.</_>
    <_>
      1.11731840e-02 1.</_>
    <_>
      1.11731840e-02 1.</_>
    <_>
      1.11731840e-02 1.</_>
    <_>
      1.11731840e-02 1.</_>
    <_>
      1.11731840e-02 1.</_>
    <_>
      1.11731840e-02 1.</_>
    <_>
      1.11731840e-02 1.</_>
    <_>
      1.11731840e-02 1.</_>
    <_>
      1.11731840e-02 1.</_>
    <_>
      1.11731840e-02 1.</_>
    <_>
      1.11731840e-02 1.</_>
    <_>
      1.67597774e-02 1.</_>
    <_>
      1.11731840e-02 1.</_>
    <_>
      1.11731840e-02 1.</_>
    <_>
      1.11731840e-02 1.</_>
    <_>
      1.11731840e-02 1.</_>
    <_>
      1.11731840e-02 1.</_>
    <_>
      1.11731840e-02 1.</_>
    <_>
      1.11731840e-02 1.</_>
    <_>
      1.11731840e-02 1.</_>
    <_>
      1.11731840e-02 1.</_>
    <_>
      1.11731840e-02 1.</_>
    <_>
      1.11731840e-02 1.</_>
    <_>
      1.11731840e-02 1.</_>
    <_>
      1.11731840e-02 1.</_>
    <_>
      1.11731840e-02 1.</_>
    <_>
      1.11731840e-02 1.</_>
    <_>
      1.11731840e-02 1.</_>
    <_>
      1.11731840e-02 1.</_>
    <_>
      1.11731840e-02 1.</_>
    <_>
      5.58659201e-03 1.</_>
    <_>
      1.11731840e-02 1.</_>
    <_>
      1.11731840e-02 1.</_>
    <_>
      1.11731840e-02 1.</_>
    <_>
      1.11731840e-02 1.</_>
    <_>
      1.11731840e-02 1.</_>
    <_>
      1.11731840e-02 1.</_>
    <_>
      1.11731840e-02 1.</_>
    <_>
      1.11731840e-02 1.</_>
    <_>
      1.11731840e-02 1.</_>
    <_>
      5.58659201e-03 1.</_>
    <_>
      5.58659201e-03 1.</_>
    <_>
      1.11731840e-02 1.</_>
    <_>
      1.11731840e-02 1.</_>
    <_>
      5.58659201e-03 1.</_>
    <_>
      1.11731840e-02 1.</_>
    <_>
      1.11731840e-02 1.</_>
    <_>
      1.11731840e-02 1.</_>
    <_>
      1.11731840e-02 1.</_>
    <_>
      1.11731840e-02 1.</_>
    <_>
      1.11731840e-02 1.</_>
    <_>
      1.11731840e-02 1.</_>
    <_>
      1.11731840e-02 1.</_>
    <_>
      1.11731840e-02 1.</_>
    <_>
      1.11731840e-02 1.</_>
    <_>
      5.58659201e-03 1.</_>
    <_>
      1.11731840e-02 1.</_>
    <_>
      1.11731840e-02 1.</_>
    <_>
      1.11731840e-02 1.</_>
    <_>
      1.11731840e-02 1.</_>
    <_>
      1.11731840e-02 1.</_>
    <_>
      1.67597774e-02 1.</_>
    <_>
      1.67597774e-02 1.</_>
    <_>
      1.67597774e-02 1.</_>
    <_>
      1.11731840e-02 1.</_>
    <_>
      1.67597774e-02 1.</_>
    <_>
      1.67597774e-02 1.</_>
    <_>
      1.67597774e-02 1.</_>
    <_>
      1.67597774e-02 1.</_>
    <_>
      1.67597774e-02 1.</_>
    <_>
      1.67597774e-02 1.</_>
    <_>
      1.67597774e-02 1.</_>
    <_>
      1.67597774e-02 1.</_>
    <_>
      1.67597774e-02 1.</_>
    <_>
      1.67597774e-02 1.</_>
    <_>
      1.11731840e-02 1.</_>
    <_>
      1.67597774e-02 1.</_>
    <_>
      1.67597774e-02 1.</_>
    <_>
      1.11731840e-02 1.</_>
    <_>
      1.11731840e-02 1.</_>
    <_>
      1.67597774e-02 1.</_>
    <_>
      1.67597774e-02 1.</_>
    <_>
      1.67597774e-02 1.</_>
    <_>
      1.67597774e-02 1.</_>
    <_>
      1.67597774e-02 1.</_>
    <_>
      1.67597774e-02 1.</_>
    <_>
      1.67597774e-02 1.</_>
    <_>
      1.67597774e-02 1.</_>
    <_>
      1.11731840e-02 1.</_>
    <_>
      1.11731840e-02 1.</_>
    <_>
      1.11731840e-02 1.</_>
    <_>
      1.67597774e-02 1.</_>
    <_>
      1.11731840e-02 1.</_>
    <_>
      1.11731840e-02 1.</_>
    <_>
      1.67597774e-02 1.</_>
    <_>
      1.67597774e-02 1.</_>
    <_>
      1.67597774e-02 1.</_>
    <_>
      1.67597774e-02 1.</_>
    <_>
      1.67597774e-02 1.</_>
    <_>
      1.67597774e-02 1.</_>
    <_>
      1.67597774e-02 1.</_>
    <_>
      1.67597774e-02 1.</_>
    <_>
      1.67597774e-02 1.</_>
    <_>
      1.11731840e-02 1.</_>
    <_>
      1.11731840e-02 1.</_>
    <_>
      1.67597774e-02 1.</_>
    <_>
      1.67597774e-02 1.</_>
    <_>
      1.11731840e-02 1.</_>
    <_>
      1.11731840e-02 1.</_>
    <_>
      1.11731840e-02 1.</_>
    <_>
      1.11731840e-02 1.</_>
    <_>
      1.11731840e-02 1.</_>
    <_>
      1.11731840e-02 1.</_>
    <_>
      1.11731840e-02 1.</_>
    <_>
      1.11731840e-02 1.</_>
    <_>
      1.11731840e-02 1.</_>
    <_>
      1.11731840e-02 1.</_>
    <_>
      1.11731840e-02 1.</_>
    <_>
      1.11731840e-02 1.</_>
    <_>
      1.11731840e-02 1.</_>
    <_>
      1.11731840e-02 1.</_>
    <_>
      1.11731840e-02 1.</_>
    <_>
      1.11731840e-02 1.</_>
    <_>
      1.11731840e-02 1.</_>
    <_>
      1.11731840e-02 1.</_>
    <_>
      1.11731840e-02 1.</_>
    <_>
      1.11731840e-02 1.</_>
    <_>
      1.67597774e-02 1.</_>
    <_>
      1.67597774e-02 1.</_>
    <_>
      1.11731840e-02 1.</_>
    <_>
      1.11731840e-02 1.</_>
    <_>
      1.11731840e-02 1.</_>
    <_>
      1.11731840e-02 1.</_>
    <_>
      1.11731840e-02 1.</_>
    <_>
      1.67597774e-02 1.</_>
    <_>
      1.67597774e-02 1.</_>
    <_>
      1.67597774e-02 1.</_>
    <_>
      1.67597774e-02 1.</_>
    <_>
      1.67597774e-02 1.</_>
    <_>
      1.11731840e-02 1.</_>
    <_>
      1.11731840e-02 1.</_>
    <_>
      1.11731840e-02 1.</_>
    <_>
      1.67597774e-02 1.</_>
    <_>
      1.67597774e-02 1.</_>
    <_>
      1.67597774e-02 1.</_>
    <_>
      1.67597774e-02 1.</_>
    <_>
      1.11731840e-02 1.</_>
    <_>
      1.11731840e-02 1.</_>
    <_>
      1.67597774e-02 1.</_>
    <_>
      1.67597774e-02 1.</_>
    <_>
      1.67597774e-02 1.</_>
    <_>
      1.67597774e-02 1.</_>
    <_>
      1.67597774e-02 1.</_>
    <_>
      1.11731840e-02 1.</_>
    <_>
      1.11731840e-02 1.</_>
    <_>
      1.11731840e-02 1.</_>
    <_>
      1.67597774e-02 1.</_>
    <_>
      1.67597774e-02 1.</_>
    <_>
      1.67597774e-02 1.</_>
    <_>
      1.67597774e-02 1.</_>
    <_>
      1.11731840e-02 1.</_>
    <_>
      1.67597774e-02 1.</_>
    <_>
      1.67597774e-02 1.</_>
    <_>
      1.11731840e-02 1.</_>
    <_>
      1.67597774e-02 1.</_>
    <_>
      1.67597774e-02 1.</_>
    <_>
      1.67597774e-02 1.</_>
    <_>
      1.67597774e-02 1.</_>
    <_>
      1.11731840e-02 1.</_>
    <_>
      1.11731840e-02 1.</_>
    <_>
      1.11731840e-02 1.</_>
    <_>
      1.11731840e-02 1.</_>
    <_>
      1.67597774e-02 1.</_>
    <_>
      1.67597774e-02 1.</_>
    <_>
      1.11731840e-02 1.</_>
    <_>
      1.11731840e-02 1.</_>
    <_>
      1.67597774e-02 1.</_>
    <_>
      1.11731840e-02 1.</_>
    <_>
      1.11731840e-02 1.</_>
    <_>
      1.67597774e-02 1.</_>
    <_>
      1.11731840e-02 1.</_>
    <_>
      1.67597774e-02 1.</_>
    <_>
      1.67597774e-02 1.</_>
    <_>
      1.11731840e-02 1.</_>
    <_>
      1.11731840e-02 1.</_>
    <_>
      1.11731840e-02 1.</_>
    <_>
      1.67597774e-02 1.</_>
    <_>
      1.67597774e-02 1.</_>
    <_>
      1.67597774e-02 1.</_>
    <_>
      1.67597774e-02 1.</_>
    <_>
      1.67597774e-02 1.</_>
    <_>
      1.67597774e-02 1.</_>
    <_>
      1.11731840e-02 1.</_>
    <_>
      1.11731840e-02 1.</_>
    <_>
      1.67597774e-02 1.</_>
    <_>
      1.11731840e-02 1.</_>
    <_>
      1.11731840e-02 1.</_>
    <_>
      1.11731840e-02 1.</_>
    <_>
      5.58659201e-03 1.</_>
    <_>
      1.11731840e-02 1.</_>
    <_>
      1.11731840e-02 1.</_>
    <_>
      1.67597774e-02 1.</_>
    <_>
      1.11731840e-02 1.</_>
    <_>
      1.67597774e-02 1.</_>
    <_>
      1.11731840e-02 1.</_>
    <_>
      1.11731840e-02 1.</_>
    <_>
      1.11731840e-02 1.</_>
    <_>
      1.11731840e-02 1.</_>
    <_>
      1.11731840e-02 1.</_>
    <_>
      1.67597774e-02 1.</_>
    <_>
      1.11731840e-02 1.</_>
    <_>
      1.11731840e-02 1.</_>
    <_>
      5.58659201e-03 1.</_>
    <_>
      5.58659201e-03 1.</_>
    <_>
      1.11731840e-02 1.</_>
    <_>
      1.67597774e-02 1.</_>
    <_>
      1.11731840e-02 1.</_>
    <_>
      1.11731840e-02 1.</_>
    <_>
      1.11731840e-02 1.</_>
    <_>
      1.11731840e-02 1.</_>
    <_>
      1.11731840e-02 1.</_>
    <_>
      1.11731840e-02 1.</_>
    <_>
      1.11731840e-02 1.</_>
    <_>
      1.11731840e-02 1.</_>
    <_>
      1.11731840e-02 1.</_>
    <_>
      1.11731840e-02 1.</_>
    <_>
      1.11731840e-02 1.</_>
    <_>
      1.11731840e-02 1.</_>
    <_>
      1.11731840e-02 1.</_>
    <_>
      1.11731840e-02 1.</_>
    <_>
      1.11731840e-02 1.</_>
    <_>
      1.67597774e-02 1.</_>
    <_>
      1.11731840e-02 1.</_>
    <_>
      1.11731840e-02 1.</_>
    <_>
      1.11731840e-02 1.</_>
    <_>
      5.58659201e-03 1.</_>
    <_>
      1.11731840e-02 1.</_>
    <_>
      1.11731840e-02 1.</_>
    <_>
      1.11731840e-02 1.</_>
    <_>
      1.11731840e-02 1.</_>
    <_>
      2.01117322e-01 1.</_>
    <_>
      2.01117322e-01 1.</_>
    <_>
      2.01117322e-01 1.</_>
    <_>
      2.01117322e-01 1.</_>
    <_>
      2.01117322e-01 1.</_>
    <_>
      2.01117322e-01 1.</_>
    <_>
      2.06703916e-01 1.</_>
    <_>
      2.01117322e-01 1.</_>
    <_>
      2.01117322e-01 1.</_>
    <_>
      2.01117322e-01 1.</_>
    <_>
      2.01117322e-01 1.</_>
    <_>
      2.01117322e-01 1.</_>
    <_>
      2.01117322e-01 1.</_>
    <_>
      2.01117322e-01 1.</_>
    <_>
      2.01117322e-01 1.</_>
    <_>
      2.01117322e-01 1.</_>
    <_>
      2.01117322e-01 1.</_>
    <_>
      2.01117322e-01 1.</_>
    <_>
      2.01117322e-01 1.</_>
    <_>
      2.01117322e-01 1.</_>
    <_>
      2.01117322e-01 1.</_>
    <_>
      2.06703916e-01 1.</_>
    <_>
      2.01117322e-01 1.</_>
    <_>
      2.01117322e-01 1.</_>
    <_>
      2.01117322e-01 1.</_>
    <_>
      2.01117322e-01 1.</_>
    <_>
      2.01117322e-01 1.</_>
    <_>
      2.01117322e-01 1.</_>
    <_>
      2.01117322e-01 1.</_>
    <_>
      2.01117322e-01 1.</_>
    <_>
      2.01117322e-01 1.</_>
    <_>
      2.01117322e-01 1.</_>
    <_>
      2.01117322e-01 1.</_>
    <_>
      2.01117322e-01 1.</_>
    <_>
      2.01117322e-01 1.</_>
    <_>
      2.01117322e-01 1.</_>
    <_>
      2.01117322e-01 1.</_>
    <_>
      2.01117322e-01 1.</_>
    <_>
      2.01117322e-01 1.</_>
    <_>
      2.01117322e-01 1.</_>
    <_>
      2.01117322e-01 1.</_>
    <_>
      2.01117322e-01 1.</_>
    <_>
      2.01117322e-01 1.</_>
    <_>
      2.01117322e-01 1.</_>
    <_>
      2.01117322e-01 1.</_>
    <_>
      2.01117322e-01 1.</_>
    <_>
      2.01117322e-01 1.</_>
    <_>
      2.01117322e-01 1.</_>
    <_>
      2.01117322e-01 1.</_>
    <_>
      2.01117322e-01 1.</_>
    <_>
      2.01117322e-01 1.</_>
    <_>
      2.01117322e-01 1.</_>
    <_>
      2.01117322e-01 1.</_>
    <_>
      2.01117322e-01 1.</_>
    <_>
      2.01117322e-01 1.</_>
    <_>
      2.01117322e-01 1.</_>
    <_>
      2.01117322e-01 1.</_>
    <_>
      2.01117322e-01 1.</_>
    <_>
      2.01117322e-01 1.</_>
    <_>
      2.01117322e-01 1.</_>
    <_>
      2.01117322e-01 1.</_>
    <_>
      2.01117322e-01 1.</_>
    <_>
      2.01117322e-01 1.</_>
    <_>
      2.01117322e-01 1.</_>
    <_>
      2.01117322e-01 1.</_>
    <_>
      2.01117322e-01 1.</_>
    <_>
      2.01117322e-01 1.</_>
    <_>
      2.01117322e-01 1.</_>
    <_>
      2.01117322e-01 1.</_>
    <_>
      2.01117322e-01 1.</_>
    <_>
      2.01117322e-01 1.</_>
    <_>
      2.01117322e-01 1.</_>
    <_>
      2.01117322e-01 1.</_>
    <_>
      2.01117322e-01 1.</_>
    <_>
      2.01117322e-01 1.</_>
    <_>
      2.01117322e-01 1.</_>
    <_>
      2.01117322e-01 1.</_>
    <_>
      2.01117322e-01 1.</_>
    <_>
      2.01117322e-01 1.</_>
    <_>
      2.01117322e-01 1.</_>
    <_>
      2.01117322e-01 1.</_>
    <_>
      2.01117322e-01 1.</_>
    <_>
      2.01117322e-01 1.</_>
    <_>
      2.01117322e-01 1.</_>
    <_>
      2.01117322e-01 1.</_>
    <_>
      2.01117322e-01 1.</_>
    <_>
      2.01117322e-01 1.</_>
    <_>
      2.01117322e-01 1.</_>
    <_>
      2.01117322e-01 1.</_>
    <_>
      2.01117322e-01 1.</_>
    <_>
      2.01117322e-01 1.</_>
    <_>
      2.01117322e-01 1.</_>
    <_>
      2.01117322e-01 1.</_>
    <_>
      2.01117322e-01 1.</_>
    <_>
      2.01117322e-01 1.</_>
    <_>
      2.01117322e-01 1.</_>
    <_>
      2.01117322e-01 1.</_>
    <_>
      2.01117322e-01 1.</_>
    <_>
      2.01117322e-01 1.</_>
    <_>
      2.01117322e-01 1.</_>
    <_>
      2.01117322e-01 1.</_>
    <_>
      2.01117322e-01 1.</_>
    <_>
      2.01117322e-01 1.</_>
    <_>
      2.01117322e-01 1.</_>
    <_>
      2.01117322e-01 1.</_>
    <_>
      2.01117322e-01 1.</_>
    <_>
      2.01117322e-01 1.</_>
    <_>
      2.01117322e-01 1.</_>
    <_>
      2.01117322e-01 1.</_>
    <_>
      2.01117322e-01 1.</_>
    <_>
      2.01117322e-01 1.</_>
    <_>
      2.01117322e-01 1.</_>
    <_>
      2.01117322e-01 1.</_>
    <_>
      2.01117322e-01 1.</_>
    <_>
      2.01117322e-01 1.</_>
    <_>
      2.01117322e-01 1.</_>
    <_>
      2.01117322e-01 1.</_>
    <_>
      2.01117322e-01 1.</_>
    <_>
      2.01117322e-01 1.</_>
    <_>
      2.01117322e-01 1.</_>
    <_>
      2.01117322e-01 1.</_>
    <_>
      2.01117322e-01 1.</_>
    <_>
      2.01117322e-01 1.</_>
    <_>
      2.01117322e-01 1.</_>
    <_>
      2.01117322e-01 1.</_>
    <_>
      2.01117322e-01 1.</_>
    <_>
      2.01117322e-01 1.</_>
    <_>
      2.01117322e-01 1.</_>
    <_>
      2.01117322e-01 1.</_>
    <_>
      2.01117322e-01 1.</_>
    <_>
      2.01117322e-01 1.</_>
    <_>
      2.01117322e-01 1.</_>
    <_>
      2.01117322e-01 1.</_>
    <_>
      2.01117322e-01 1.</_>
    <_>
      2.01117322e-01 1.</_>
    <_>
      2.01117322e-01 1.</_>
    <_>
      2.01117322e-01 1.</_>
    <_>
      2.01117322e-01 1.</_>
    <_>
      2.01117322e-01 1.</_>
    <_>
      2.01117322e-01 1.</_>
    <_>
      2.01117322e-01 1.</_>
    <_>
      2.01117322e-01 1.</_>
    <_>
      2.01117322e-01 1.</_>
    <_>
      2.01117322e-01 1.</_>
    <_>
      2.01117322e-01 1.</_>
    <_>
      2.01117322e-01 1.</_>
    <_>
      2.01117322e-01 1.</_>
    <_>
      2.01117322e-01 1.</_>
    <_>
      2.01117322e-01 1.</_>
    <_>
      2.01117322e-01 1.</_>
    <_>
      2.01117322e-01 1.</_>
    <_>
      2.01117322e-01 1.</_>
    <_>
      2.01117322e-01 1.</_>
    <_>
      2.01117322e-01 1.</_>
    <_>
      2.01117322e-01 1.</_>
    <_>
      2.01117322e-01 1.</_>
    <_>
      2.01117322e-01 1.</_>
    <_>
      2.01117322e-01 1.</_>
    <_>
      2.01117322e-01 1.</_>
    <_>
      2.01117322e-01 1.</_>
    <_>
      2.01117322e-01 1.</_>
    <_>
      2.01117322e-01 1.</_>
    <_>
      2.01117322e-01 1.</_>
    <_>
      2.01117322e-01 1.</_>
    <_>
      2.01117322e-01 1.</_>
    <_>
      2.01117322e-01 1.</_>
    <_>
      2.01117322e-01 1.</_>
    <_>
      2.01117322e-01 1.</_>
    <_>
      2.01117322e-01 1.</_>
    <_>
      2.01117322e-01 1.</_>
    <_>
      2.01117322e-01 1.</_>
    <_>
      2.01117322e-01 1.</_>
    <_>
      2.01117322e-01 1.</_>
    <_>
      2.01117322e-01 1.</_>
    <_>
      2.01117322e-01 1.</_>
    <_>
      2.01117322e-01 1.</_>
    <_>
      2.01117322e-01 1.</_>
    <_>
      2.01117322e-01 1.</_>
    <_>
      2.01117322e-01 1.</_>
    <_>
      2.01117322e-01 1.</_>
    <_>
      2.01117322e-01 1.</_>
    <_>
      2.01117322e-01 1.</_>
    <_>
      2.01117322e-01 1.</_>
    <_>
      2.01117322e-01 1.</_>
    <_>
      2.01117322e-01 1.</_>
    <_>
      2.01117322e-01 1.</_>
    <_>
      2.01117322e-01 1.</_>
    <_>
      2.01117322e-01 1.</_>
    <_>
      2.01117322e-01 1.</_>
    <_>
      2.01117322e-01 1.</_>
    <_>
      2.01117322e-01 1.</_>
    <_>
      2.01117322e-01 1.</_>
    <_>
      2.01117322e-01 1.</_>
    <_>
      2.01117322e-01 1.</_>
    <_>
      2.01117322e-01 1.</_>
    <_>
      2.01117322e-01 1.</_>
    <_>
      2.01117322e-01 1.</_>
    <_>
      2.01117322e-01 1.</_>
    <_>
      2.01117322e-01 1.</_>
    <_>
      2.01117322e-01 1.</_>
    <_>
      2.01117322e-01 1.</_>
    <_>
      2.01117322e-01 1.</_>
    <_>
      2.01117322e-01 1.</_>
    <_>
      2.01117322e-01 1.</_>
    <_>
      2.01117322e-01 1.</_>
    <_>
      2.01117322e-01 1.</_>
    <_>
      2.01117322e-01 1.</_>
    <_>
      2.01117322e-01 1.</_>
    <_>
      2.01117322e-01 1.</_>
    <_>
      2.01117322e-01 1.</_>
    <_>
      2.01117322e-01 1.</_>
    <_>
      2.01117322e-01 1.</_>
    <_>
      2.01117322e-01 1.</_>
    <_>
      2.01117322e-01 1.</_>
    <_>
      2.01117322e-01 1.</_>
    <_>
      2.01117322e-01 1.</_>
    <_>
      2.01117322e-01 1.</_>
    <_>
      2.01117322e-01 1.</_>
    <_>
      2.01117322e-01 1.</_>
    <_>
      2.01117322e-01 1.</_>
    <_>
      2.01117322e-01 1.</_>
    <_>
      2.01117322e-01 1.</_>
    <_>
      2.01117322e-01 1.</_>
    <_>
      2.01117322e-01 1.</_>
    <_>
      2.01117322e-01 1.</_>
    <_>
      2.01117322e-01 1.</_>
    <_>
      2.01117322e-01 1.</_>
    <_>
      2.01117322e-01 1.</_>
    <_>
      2.01117322e-01 1.</_>
    <_>
      2.01117322e-01 1.</_>
    <_>
      2.01117322e-01 1.</_>
    <_>
      2.01117322e-01 1.</_>
    <_>
      2.01117322e-01 1.</_>
    <_>
      2.01117322e-01 1.</_>
    <_>
      2.01117322e-01 1.</_>
    <_>
      2.01117322e-01 1.</_>
    <_>
      2.01117322e-01 1.</_>
    <_>
      2.01117322e-01 1.</_>
    <_>
      1.95530728e-01 1.</_>
    <_>
      2.01117322e-01 1.</_>
    <_>
      2.01117322e-01 1.</_>
    <_>
      2.01117322e-01 1.</_>
    <_>
      2.01117322e-01 1.</_>
    <_>
      2.01117322e-01 1.</_>
    <_>
      2.01117322e-01 1.</_>
    <_>
      2.01117322e-01 1.</_>
    <_>
      2.01117322e-01 1.</_>
    <_>
      2.01117322e-01 1.</_>
    <_>
      2.01117322e-01 1.</_>
    <_>
      2.01117322e-01 1.</_>
    <_>
      2.01117322e-01 1.</_>
    <_>
      2.01117322e-01 1.</_>
    <_>
      2.01117322e-01 1.</_>
    <_>
      1.95530728e-01 1.</_>
    <_>
      2.01117322e-01 1.</_>
    <_>
      2.01117322e-01 1.</_>
    <_>
      2.01117322e-01 1.</_>
    <_>
      2.01117322e-01 1.</_>
    <_>
      2.01117322e-01 1.</_>
    <_>
      2.01117322e-01 1.</_>
    <_>
      2.01117322e-01 1.</_>
    <_>
      2.01117322e-01 1.</_>
    <_>
      1.95530728e-01 1.</_>
    <_>
      2.01117322e-01 1.</_>
    <_>
      2.01117322e-01 1.</_>
    <_>
      2.01117322e-01 1.</_>
    <_>
      2.01117322e-01 1.</_>
    <_>
      1.95530728e-01 1.</_>
    <_>
      1.95530728e-01 1.</_>
    <_>
      2.01117322e-01 1.</_>
    <_>
      2.01117322e-01 1.</_>
    <_>
      2.01117322e-01 1.</_>
    <_>
      2.01117322e-01 1.</_>
    <_>
      2.01117322e-01 1.</_>
    <_>
      2.01117322e-01 1.</_>
    <_>
      2.01117322e-01 1.</_>
    <_>
      2.01117322e-01 1.</_>
    <_>
      2.01117322e-01 1.</_>
    <_>
      2.01117322e-01 1.</_>
    <_>
      2.01117322e-01 1.</_>
    <_>
      2.01117322e-01 1.</_>
    <_>
      2.01117322e-01 1.</_>
    <_>
      2.01117322e-01 1.</_>
    <_>
      2.01117322e-01 1.</_>
    <_>
      2.01117322e-01 1.</_>
    <_>
      2.01117322e-01 1.</_>
    <_>
      1.95530728e-01 1.</_>
    <_>
      2.01117322e-01 1.</_>
    <_>
      2.01117322e-01 1.</_>
    <_>
      2.01117322e-01 1.</_>
    <_>
      2.01117322e-01 1.</_>
    <_>
      2.01117322e-01 1.</_>
    <_>
      2.01117322e-01 1.</_>
    <_>
      2.01117322e-01 1.</_>
    <_>
      2.01117322e-01 1.</_>
    <_>
      2.01117322e-01 1.</_>
    <_>
      2.01117322e-01 1.</_>
    <_>
      2.01117322e-01 1.</_>
    <_>
      2.01117322e-01 1.</_>
    <_>
      2.01117322e-01 1.</_>
    <_>
      2.01117322e-01 1.</_>
    <_>
      2.01117322e-01 1.</_>
    <_>
      2.01117322e-01 1.</_>
    <_>
      2.01117322e-01 1.</_>
    <_>
      1.95530728e-01 1.</_>
    <_>
      2.01117322e-01 1.</_>
    <_>
      2.01117322e-01 1.</_>
    <_>
      2.01117322e-01 1.</_>
    <_>
      2.01117322e-01 1.</_>
    <_>
      2.01117322e-01 1.</_>
    <_>
      2.01117322e-01 1.</_>
    <_>
      2.01117322e-01 1.</_>
    <_>
      2.01117322e-01 1.</_>
    <_>
      2.01117322e-01 1.</_>
    <_>
      2.01117322e-01 1.</_>
    <_>
      2.01117322e-01 1.</_>
    <_>
      2.01117322e-01 1.</_>
    <_>
      2.01117322e-01 1.</_>
    <_>
      2.01117322e-01 1.</_>
    <_>
      1.95530728e-01 1.</_>
    <_>
      2.01117322e-01 1.</_>
    <_>
      2.01117322e-01 1.</_>
    <_>
      2.01117322e-01 1.</_>
    <_>
      2.01117322e-01 1.</_>
    <_>
      2.01117322e-01 1.</_>
    <_>
      2.01117322e-01 1.</_>
    <_>
      2.01117322e-01 1.</_>
    <_>
      2.01117322e-01 1.</_>
    <_>
      2.01117322e-01 1.</_>
    <_>
      2.01117322e-01 1.</_>
    <_>
      2.01117322e-01 1.</_>
    <_>
      2.01117322e-01 1.</_>
    <_>
      2.01117322e-01 1.</_>
    <_>
      2.01117322e-01 1.</_>
    <_>
      2.01117322e-01 1.</_>
    <_>
      2.01117322e-01 1.</_>
    <_>
      2.01117322e-01 1.</_>
    <_>
      2.01117322e-01 1.</_>
    <_>
      2.01117322e-01 1.</_>
    <_>
      1.95530728e-01 1.</_>
    <_>
      2.01117322e-01 1.</_>
    <_>
      2.01117322e-01 1.</_>
    <_>
      2.01117322e-01 1.</_>
    <_>
      2.01117322e-01 1.</_>
    <_>
      2.01117322e-01 1.</_>
    <_>
      2.01117322e-01 1.</_>
    <_>
      2.01117322e-01 1.</_>
    <_>
      2.01117322e-01 1.</_>
    <_>
      2.01117322e-01 1.</_>
    <_>
      2.01117322e-01 1.</_>
    <_>
      2.01117322e-01 1.</_>
    <_>
      2.01117322e-01 1.</_>
    <_>
      2.01117322e-01 1.</_>
    <_>
      2.01117322e-01 1.</_>
    <_>
      2.01117322e-01 1.</_>
    <_>
      2.01117322e-01 1.</_>
    <_>
      2.01117322e-01 1.</_>
    <_>
      2.01117322e-01 1.</_>
    <_>
      2.01117322e-01 1.</_>
    <_>
      2.01117322e-01 1.</_>
    <_>
      2.01117322e-01 1.</_>
    <_>
      2.01117322e-01 1.</_>
    <_>
      2.01117322e-01 1.</_>
    <_>
      2.01117322e-01 1.</_>
    <_>
      2.01117322e-01 1.</_>
    <_>
      2.01117322e-01 1.</_>
    <_>
      2.01117322e-01 1.</_>
    <_>
      2.01117322e-01 1.</_>
    <_>
      2.01117322e-01 1.</_>
    <_>
      2.01117322e-01 1.</_>
    <_>
      2.01117322e-01 1.</_>
    <_>
      2.01117322e-01 1.</_>
    <_>
      2.01117322e-01 1.</_>
    <_>
      2.01117322e-01 1.</_>
    <_>
      2.01117322e-01 1.</_>
    <_>
      2.01117322e-01 1.</_>
    <_>
      2.01117322e-01 1.</_>
    <_>
      2.01117322e-01 1.</_>
    <_>
      2.01117322e-01 1.</_>
    <_>
      2.01117322e-01 1.</_>
    <_>
      2.01117322e-01 1.</_>
    <_>
      2.01117322e-01 1.</_>
    <_>
      2.01117322e-01 1.</_>
    <_>
      2.01117322e-01 1.</_>
    <_>
      2.01117322e-01 1.</_>
    <_>
      2.01117322e-01 1.</_>
    <_>
      2.01117322e-01 1.</_>
    <_>
      2.01117322e-01 1.</_>
    <_>
      2.01117322e-01 1.</_>
    <_>
      2.01117322e-01 1.</_>
    <_>
      2.01117322e-01 1.</_>
    <_>
      2.01117322e-01 1.</_>
    <_>
      2.01117322e-01 1.</_>
    <_>
      2.01117322e-01 1.</_>
    <_>
      2.01117322e-01 1.</_>
    <_>
      2.01117322e-01 1.</_>
    <_>
      2.01117322e-01 1.</_>
    <_>
      2.01117322e-01 1.</_>
    <_>
      2.01117322e-01 1.</_>
    <_>
      2.01117322e-01 1.</_>
    <_>
      2.01117322e-01 1.</_>
    <_>
      2.01117322e-01 1.</_>
    <_>
      2.01117322e-01 1.</_>
    <_>
      2.01117322e-01 1.</_>
    <_>
      2.01117322e-01 1.</_>
    <_>
      2.01117322e-01 1.</_>
    <_>
      2.01117322e-01 1.</_>
    <_>
      2.01117322e-01 1.</_>
    <_>
      2.01117322e-01 1.</_>
    <_>
      2.01117322e-01 1.</_>
    <_>
      2.01117322e-01 1.</_>
    <_>
      2.01117322e-01 1.</_>
    <_>
      2.01117322e-01 1.</_>
    <_>
      2.01117322e-01 1.</_>
    <_>
      2.01117322e-01 1.</_>
    <_>
      2.01117322e-01 1.</_>
    <_>
      2.01117322e-01 1.</_>
    <_>
      2.01117322e-01 1.</_>
    <_>
      2.01117322e-01 1.</_>
    <_>
      2.01117322e-01 1.</_>
    <_>
      2.01117322e-01 1.</_>
    <_>
      2.01117322e-01 1.</_>
    <_>
      2.01117322e-01 1.</_>
    <_>
      2.01117322e-01 1.</_>
    <_>
      2.01117322e-01 1.</_>
    <_>
      2.01117322e-01 1.</_>
    <_>
      2.01117322e-01 1.</_>
    <_>
      2.01117322e-01 1.</_>
    <_>
      2.01117322e-01 1.</_>
    <_>
      2.01117322e-01 1.</_>
    <_>
      2.01117322e-01 1.</_>
    <_>
      2.01117322e-01 1.</_>
    <_>
      2.01117322e-01 1.</_>
    <_>
      2.01117322e-01 1.</_>
    <_>
      2.01117322e-01 1.</_>
    <_>
      2.01117322e-01 1.</_>
    <_>
      2.01117322e-01 1.</_>
    <_>
      2.01117322e-01 1.</_>
    <_>
      2.01117322e-01 1.</_>
    <_>
      2.01117322e-01 1.</_>
    <_>
      2.01117322e-01 1.</_>
    <_>
      2.01117322e-01 1.</_>
    <_>
      2.01117322e-01 1.</_>
    <_>
      2.01117322e-01 1.</_>
    <_>
      2.01117322e-01 1.</_>
    <_>
      2.01117322e-01 1.</_>
    <_>
      2.01117322e-01 1.</_>
    <_>
      2.01117322e-01 1.</_>
    <_>
      2.01117322e-01 1.</_>
    <_>
      2.01117322e-01 1.</_>
    <_>
      2.01117322e-01 1.</_>
    <_>
      2.01117322e-01 1.</_>
    <_>
      2.01117322e-01 1.</_>
    <_>
      9.94413435e-01 1.</_>
    <_>
      9.94413435e-01 1.</_>
    <_>
      9.94413435e-01 1.</_>
    <_>
      1. 1.</_>
    <_>
      9.94413435e-01 1.</_>
    <_>
      9.94413435e-01 1.</_>
    <_>
      9.94413435e-01 1.</_>
    <_>
      9.94413435e-01 1.</_>
    <_>
      9.88826811e-01 1.</_>
    <_>
      9.94413435e-01 1.</_>
    <_>
      9.94413435e-01 1.</_>
    <_>
      9.94413435e-01 1.</_>
    <_>
      9.94413435e-01 1.</_>
    <_>
      9.94413435e-01 1.</_>
    <_>
      9.94413435e-01 1.</_>
    <_>
      9.94413435e-01 1.</_>
    <_>
      9.94413435e-01 1.</_>
    <_>
      9.94413435e-01 1.</_>
    <_>
      9.94413435e-01 1.</_>
    <_>
      9.94413435e-01 1.</_>
    <_>
      9.88826811e-01 1.</_>
    <_>
      9.94413435e-01 1.</_>
    <_>
      9.94413435e-01 1.</_>
    <_>
      9.94413435e-01 1.</_>
    <_>
      9.94413435e-01 9.92156863e-01</_>
    <_>
      9.94413435e-01 1.</_>
    <_>
      9.94413435e-01 1.</_>
    <_>
      9.94413435e-01 1.</_>
    <_>
      9.88826811e-01 1.</_>
    <_>
      9.94413435e-01 1.</_>
    <_>
      9.94413435e-01 1.</_>
    <_>
      9.94413435e-01 1.</_>
    <_>
      9.94413435e-01 1.</_>
    <_>
      9.94413435e-01 1.</_>
    <_>
      9.94413435e-01 1.</_>
    <_>
      9.94413435e-01 1.</_>
    <_>
      9.94413435e-01 9.92156863e-01</_>
    <_>
      9.94413435e-01 1.</_>
    <_>
      9.94413435e-01 1.</_>
    <_>
      9.94413435e-01 1.</_>
    <_>
      9.94413435e-01 1.</_>
    <_>
      9.94413435e-01 1.</_>
    <_>
      9.94413435e-01 1.</_>
    <_>
      9.94413435e-01 1.</_>
    <_>
      9.94413435e-01 1.</_>
    <_>
      9.94413435e-01 9.92156863e-01</_>
    <_>
      9.94413435e-01 1.</_>
    <_>
      9.94413435e-01 1.</_>
    <_>
      9.94413435e-01 1.</_>
    <_>
      0. 1.</_>
    <_>
      0. 1.</_>
    <_>
      1. 1.</_>
    <_>
      1. 1.</_>
    <_>
      1. 1.</_>
    <_>
      1. 1.</_>
    <_>
      9.94413435e-01 1.</_>
    <_>
      9.94413435e-01 1.</_>
    <_>
      9.94413435e-01 1.</_>
    <_>
      9.94413435e-01 1.</_>
    <_>
      1. 1.</_>
    <_>
      0. 1.</_>
    <_>
      0. 1.</_>
    <_>
      0. 1.</_>
    <_>
      0. 1.</_>
    <_>
      1. 1.</_>
    <_>
      1. 1.</_>
    <_>
      1. 1.</_>
    <_>
      1. 1.</_>
    <_>
      0. 1.</_>
    <_>
      9.94413435e-01 1.</_>
    <_>
      1. 1.</_>
    <_>
      9.94413435e-01 1.</_>
    <_>
      9.94413435e-01 1.</_>
    <_>
      0. 1.</_>
    <_>
      9.94413435e-01 1.</_>
    <_>
      1. 1.</_>
    <_>
      0. 1.</_>
    <_>
      1. 1.</_>
    <_>
      1. 1.</_>
    <_>
      9.94413435e-01 1.</_>
    <_>
      9.94413435e-01 1.</_>
    <_>
      1. 1.</_>
    <_>
      0. 1.</_>
    <_>
      0. 1.</_>
    <_>
      1. 9.92156863e-01</_>
    <_>
      9.94413435e-01 1.</_>
    <_>
      0. 1.</_>
    <_>
      9.94413435e-01 1.</_>
    <_>
      9.94413435e-01 1.</_>
    <_>
      9.94413435e-01 1.</_>
    <_>
      0. 1.</_>
    <_>
      1. 9.84313726e-01</_>
    <_>
      0. 1.</_>
    <_>
      9.94413435e-01 1.</_>
    <_>
      9.88826811e-01 1.</_>
    <_>
      9.94413435e-01 1.</_>
    <_>
      9.94413435e-01 1.</_>
    <_>
      9.94413435e-01 1.</_>
    <_>
      0. 1.</_>
    <_>
      9.94413435e-01 9.84313726e-01</_>
    <_>
      9.94413435e-01 9.92156863e-01</_>
    <_>
      9.88826811e-01 1.</_>
    <_>
      9.88826811e-01 1.</_>
    <_>
      9.94413435e-01 1.</_>
    <_>
      9.94413435e-01 1.</_>
    <_>
      9.94413435e-01 1.</_>
    <_>
      9.94413435e-01 1.</_>
    <_>
      1. 9.84313726e-01</_>
    <_>
      1. 9.92156863e-01</_>
    <_>
      0. 1.</_>
    <_>
      0. 1.</_>
    <_>
      0. 1.</_>
    <_>
      0. 1.</_>
    <_>
      0. 1.</_>
    <_>
      9.94413435e-01 1.</_>
    <_>
      9.88826811e-01 1.</_>
    <_>
      9.94413435e-01 1.</_>
    <_>
      9.94413435e-01 1.</_>
    <_>
      9.94413435e-01 1.</_>
    <_>
      9.94413435e-01 1.</_>
    <_>
      0. 1.</_>
    <_>
      9.94413435e-01 9.92156863e-01</_>
    <_>
      9.94413435e-01 1.</_>
    <_>
      9.94413435e-01 1.</_>
    <_>
      9.94413435e-01 1.</_>
    <_>
      9.88826811e-01 1.</_>
    <_>
      9.94413435e-01 1.</_>
    <_>
      9.94413435e-01 1.</_>
    <_>
      9.94413435e-01 1.</_>
    <_>
      9.94413435e-01 1.</_>
    <_>
      0. 1.</_>
    <_>
      9.94413435e-01 9.92156863e-01</_>
    <_>
      9.94413435e-01 1.</_>
    <_>
      9.94413435e-01 1.</_>
    <_>
      9.94413435e-01 1.</_>
    <_>
      9.94413435e-01 1.</_>
    <_>
      9.94413435e-01 1.</_>
    <_>
      9.94413435e-01 1.</_>
    <_>
      9.94413435e-01 1.</_>
    <_>
      9.94413435e-01 1.</_>
    <_>
      9.94413435e-01 1.</_>
    <_>
      0. 1.</_>
    <_>
      9.94413435e-01 9.84313726e-01</_>
    <_>
      9.94413435e-01 1.</_>
    <_>
      9.94413435e-01 1.</_>
    <_>
      9.94413435e-01 1.</_>
    <_>
      9.94413435e-01 1.</_>
    <_>
      9.94413435e-01 1.</_>
    <_>
      9.94413435e-01 1.</_>
    <_>
      9.94413435e-01 1.</_>
    <_>
      0. 1.</_>
    <_>
      3.51955295e-01 1.</_>
    <_>
      3.46368700e-01 1.</_>
    <_>
      3.46368700e-01 1.</_>
    <_>
      3.46368700e-01 1.</_>
    <_>
      3.40782136e-01 1.</_>
    <_>
      3.40782136e-01 1.</_>
    <_>
      3.40782136e-01 1.</_>
    <_>
      3.40782136e-01 1.</_>
    <_>
      3.46368700e-01 1.</_>
    <_>
      3.51955295e-01 1.</_>
    <_>
      3.51955295e-01 9.92156863e-01</_>
    <_>
      3.51955295e-01 1.</_>
    <_>
      3.46368700e-01 1.</_>
    <_>
      3.40782136e-01 1.</_>
    <_>
      3.35195541e-01 1.</_>
    <_>
      3.51955295e-01 1.</_>
    <_>
      3.46368700e-01 1.</_>
    <_>
      3.46368700e-01 1.</_>
    <_>
      3.40782136e-01 1.</_>
    <_>
      3.40782136e-01 1.</_>
    <_>
      3.40782136e-01 1.</_>
    <_>
      3.40782136e-01 1.</_>
    <_>
      3.40782136e-01 1.</_>
    <_>
      3.46368700e-01 1.</_>
    <_>
      3.51955295e-01 9.92156863e-01</_>
    <_>
      3.51955295e-01 9.88235295e-01</_>
    <_>
      3.51955295e-01 1.</_>
    <_>
      3.46368700e-01 1.</_>
    <_>
      3.40782136e-01 1.</_>
    <_>
      3.35195541e-01 1.</_>
    <_>
      3.46368700e-01 1.</_>
    <_>
      3.40782136e-01 1.</_>
    <_>
      3.40782136e-01 1.</_>
    <_>
      3.40782136e-01 1.</_>
    <_>
      3.40782136e-01 1.</_>
    <_>
      3.40782136e-01 1.</_>
    <_>
      3.40782136e-01 1.</_>
    <_>
      3.40782136e-01 1.</_>
    <_>
      3.46368700e-01 1.</_>
    <_>
      3.46368700e-01 9.88235295e-01</_>
    <_>
      3.51955295e-01 9.88235295e-01</_>
    <_>
      3.51955295e-01 1.</_>
    <_>
      3.51955295e-01 1.</_>
    <_>
      3.46368700e-01 1.</_>
    <_>
      3.40782136e-01 1.</_>
    <_>
      3.46368700e-01 1.</_>
    <_>
      3.46368700e-01 1.</_>
    <_>
      3.40782136e-01 1.</_>
    <_>
      3.40782136e-01 1.</_>
    <_>
      3.40782136e-01 1.</_>
    <_>
      3.40782136e-01 1.</_>
    <_>
      3.40782136e-01 1.</_>
    <_>
      3.40782136e-01 1.</_>
    <_>
      3.40782136e-01 1.</_>
    <_>
      3.46368700e-01 1.</_>
    <_>
      3.46368700e-01 1.</_>
    <_>
      3.46368700e-01 1.</_>
    <_>
      3.46368700e-01 1.</_>
    <_>
      3.46368700e-01 1.</_>
    <_>
      3.40782136e-01 1.</_>
    <_>
      3.46368700e-01 1.</_>
    <_>
      3.46368700e-01 1.</_>
    <_>
      3.40782136e-01 1.</_>
    <_>
      3.40782136e-01 1.</_>
    <_>
      3.40782136e-01 1.</_>
    <_>
      3.40782136e-01 1.</_>
    <_>
      3.40782136e-01 1.</_>
    <_>
      3.40782136e-01 1.</_>
    <_>
      3.40782136e-01 1.</_>
    <_>
      3.40782136e-01 1.</_>
    <_>
      3.46368700e-01 1.</_>
    <_>
      3.46368700e-01 1.</_>
    <_>
      3.46368700e-01 1.</_>
    <_>
      3.40782136e-01 1.</_>
    <_>
      3.40782136e-01 1.</_>
    <_>
      3.46368700e-01 1.</_>
    <_>
      3.46368700e-01 1.</_>
    <_>
      3.46368700e-01 1.</_>
    <_>
      3.40782136e-01 1.</_>
    <_>
      3.40782136e-01 1.</_>
    <_>
      3.40782136e-01 1.</_>
    <_>
      3.40782136e-01 1.</_>
    <_>
      3.40782136e-01 1.</_>
    <_>
      3.40782136e-01 1.</_>
    <_>
      3.40782136e-01 1.</_>
    <_>
      3.46368700e-01 1.</_>
    <_>
      3.46368700e-01 1.</_>
    <_>
      3.40782136e-01 1.</_>
    <_>
      3.40782136e-01 1.</_>
    <_>
      3.40782136e-01 1.</_>
    <_>
      3.46368700e-01 1.</_>
    <_>
      3.46368700e-01 1.</_>
    <_>
      3.40782136e-01 1.</_>
    <_>
      3.40782136e-01 1.</_>
    <_>
      3.40782136e-01 1.</_>
    <_>
      3.40782136e-01 1.</_>
    <_>
      3.46368700e-01 1.</_>
    <_>
      3.40782136e-01 9.92156863e-01</_>
    <_>
      3.46368700e-01 1.</_>
    <_>
      3.40782136e-01 1.</_>
    <_>
      3.40782136e-01 1.</_>
    <_>
      3.40782136e-01 1.</_>
    <_>
      3.40782136e-01 1.</_>
    <_>
      3.40782136e-01 1.</_>
    <_>
      3.40782136e-01 1.</_>
    <_>
      3.46368700e-01 1.</_>
    <_>
      3.46368700e-01 1.</_>
    <_>
      3.40782136e-01 1.</_>
    <_>
      3.40782136e-01 1.</_>
    <_>
      3.40782136e-01 1.</_>
    <_>
      3.40782136e-01 1.</_>
    <_>
      3.40782136e-01 1.</_>
    <_>
      3.40782136e-01 1.</_>
    <_>
      3.46368700e-01 1.</_>
    <_>
      3.46368700e-01 1.</_>
    <_>
      3.46368700e-01 1.</_>
    <_>
      3.46368700e-01 1.</_>
    <_>
      3.40782136e-01 1.</_>
    <_>
      3.40782136e-01 1.</_>
    <_>
      3.35195541e-01 1.</_>
    <_>
      3.46368700e-01 1.</_>
    <_>
      3.46368700e-01 9.92156863e-01</_>
    <_>
      3.40782136e-01 1.</_>
    <_>
      3.35195541e-01 1.</_>
    <_>
      3.40782136e-01 1.</_>
    <_>
      3.40782136e-01 1.</_>
    <_>
      3.40782136e-01 1.</_>
    <_>
      3.40782136e-01 1.</_>
    <_>
      3.46368700e-01 1.</_>
    <_>
      3.46368700e-01 1.</_>
    <_>
      3.46368700e-01 1.</_>
    <_>
      3.40782136e-01 1.</_>
    <_>
      3.35195541e-01 1.</_>
    <_>
      3.40782136e-01 1.</_>
    <_>
      3.40782136e-01 1.</_>
    <_>
      3.46368700e-01 1.</_>
    <_>
      3.46368700e-01 9.88235295e-01</_>
    <_>
      3.40782136e-01 9.88235295e-01</_>
    <_>
      3.35195541e-01 9.88235295e-01</_>
    <_>
      3.40782136e-01 1.</_>
    <_>
      3.40782136e-01 1.</_>
    <_>
      3.40782136e-01 1.</_>
    <_>
      3.40782136e-01 1.</_>
    <_>
      3.46368700e-01 1.</_>
    <_>
      3.46368700e-01 1.</_>
    <_>
      3.46368700e-01 1.</_>
    <_>
      3.40782136e-01 1.</_>
    <_>
      3.35195541e-01 1.</_>
    <_>
      3.35195541e-01 1.</_>
    <_>
      3.40782136e-01 1.</_>
    <_>
      3.46368700e-01 1.</_>
    <_>
      3.46368700e-01 1.</_>
    <_>
      3.40782136e-01 9.68627453e-01</_>
    <_>
      3.35195541e-01 9.64705884e-01</_>
    <_>
      3.40782136e-01 1.</_>
    <_>
      3.40782136e-01 1.</_>
    <_>
      3.40782136e-01 1.</_>
    <_>
      3.40782136e-01 1.</_>
    <_>
      3.46368700e-01 1.</_>
    <_>
      3.46368700e-01 1.</_>
    <_>
      3.46368700e-01 1.</_>
    <_>
      3.40782136e-01 1.</_>
    <_>
      3.40782136e-01 1.</_>
    <_>
      3.40782136e-01 1.</_>
    <_>
      3.35195541e-01 1.</_>
    <_>
      3.46368700e-01 1.</_>
    <_>
      3.46368700e-01 1.</_>
    <_>
      3.40782136e-01 9.64705884e-01</_>
    <_>
      3.40782136e-01 9.52941179e-01</_>
    <_>
      3.46368700e-01 9.88235295e-01</_>
    <_>
      3.51955295e-01 9.92156863e-01</_>
    <_>
      3.51955295e-01 9.92156863e-01</_>
    <_>
      3.51955295e-01 1.</_>
    <_>
      3.46368700e-01 1.</_>
    <_>
      3.46368700e-01 1.</_>
    <_>
      3.46368700e-01 1.</_>
    <_>
      3.46368700e-01 1.</_>
    <_>
      3.46368700e-01 1.</_>
    <_>
      3.40782136e-01 1.</_>
    <_>
      3.40782136e-01 1.</_>
    <_>
      3.46368700e-01 1.</_>
    <_>
      3.40782136e-01 1.</_>
    <_>
      3.40782136e-01 9.68627453e-01</_>
    <_>
      3.40782136e-01 9.56862748e-01</_>
    <_>
      3.51955295e-01 9.92156863e-01</_>
    <_>
      3.51955295e-01 1.</_>
    <_>
      3.51955295e-01 1.</_>
    <_>
      3.46368700e-01 1.</_>
    <_>
      3.40782136e-01 1.</_>
    <_>
      3.40782136e-01 9.92156863e-01</_>
    <_>
      3.40782136e-01 9.92156863e-01</_>
    <_>
      3.46368700e-01 9.92156863e-01</_>
    <_>
      3.40782136e-01 1.</_>
    <_>
      3.40782136e-01 1.</_>
    <_>
      3.35195541e-01 1.</_>
    <_>
      3.35195541e-01 9.80392158e-01</_>
    <_>
      3.35195541e-01 9.88235295e-01</_>
    <_>
      3.35195541e-01 9.68627453e-01</_>
    <_>
      3.40782136e-01 9.64705884e-01</_>
    <_>
      3.46368700e-01 9.88235295e-01</_>
    <_>
      3.46368700e-01 9.80392158e-01</_>
    <_>
      3.46368700e-01 9.80392158e-01</_>
    <_>
      3.40782136e-01 9.80392158e-01</_>
    <_>
      3.35195541e-01 9.76470590e-01</_>
    <_>
      3.35195541e-01 9.64705884e-01</_>
    <_>
      3.35195541e-01 9.64705884e-01</_>
    <_>
      3.35195541e-01 9.68627453e-01</_>
    <_>
      3.35195541e-01 9.64705884e-01</_>
    <_>
      3.35195541e-01 9.68627453e-01</_>
    <_>
      3.35195541e-01 9.76470590e-01</_>
    <_>
      3.24022353e-01 9.84313726e-01</_>
    <_>
      3.29608947e-01 9.76470590e-01</_>
    <_>
      3.35195541e-01 9.52941179e-01</_>
    <_>
      3.35195541e-01 9.49019611e-01</_>
    <_>
      3.40782136e-01 9.60784316e-01</_>
    <_>
      3.40782136e-01 9.41176474e-01</_>
    <_>
      3.40782136e-01 9.49019611e-01</_>
    <_>
      3.40782136e-01 9.45098042e-01</_>
    <_>
      3.40782136e-01 9.37254906e-01</_>
    <_>
      3.35195541e-01 9.17647064e-01</_>
    <_>
      3.35195541e-01 9.25490201e-01</_>
    <_>
      3.35195541e-01 9.45098042e-01</_>
    <_>
      3.40782136e-01 9.45098042e-01</_>
    <_>
      3.40782136e-01 9.56862748e-01</_>
    <_>
      3.40782136e-01 9.68627453e-01</_>
    <_>
      3.40782136e-01 1.</_>
    <_>
      3.40782136e-01 1.</_>
    <_>
      3.40782136e-01 1.</_>
    <_>
      3.35195541e-01 9.92156863e-01</_>
    <_>
      3.35195541e-01 9.88235295e-01</_>
    <_>
      3.35195541e-01 9.92156863e-01</_>
    <_>
      3.40782136e-01 1.</_>
    <_>
      3.40782136e-01 1.</_>
    <_>
      3.35195541e-01 9.92156863e-01</_>
    <_>
      3.35195541e-01 9.92156863e-01</_>
    <_>
      3.40782136e-01 1.</_>
    <_>
      3.40782136e-01 1.</_>
    <_>
      3.40782136e-01 1.</_>
    <_>
      3.40782136e-01 1.</_>
    <_>
      3.35195541e-01 9.92156863e-01</_>
    <_>
      3.40782136e-01 1.</_>
    <_>
      3.46368700e-01 1.</_>
    <_>
      3.40782136e-01 1.</_>
    <_>
      3.40782136e-01 1.</_>
    <_>
      3.40782136e-01 1.</_>
    <_>
      3.40782136e-01 1.</_>
    <_>
      3.46368700e-01 1.</_>
    <_>
      3.40782136e-01 1.</_>
    <_>
      3.40782136e-01 1.</_>
    <_>
      3.40782136e-01 1.</_>
    <_>
      3.40782136e-01 1.</_>
    <_>
      3.40782136e-01 1.</_>
    <_>
      3.46368700e-01 1.</_>
    <_>
      3.40782136e-01 1.</_>
    <_>
      3.40782136e-01 1.</_>
    <_>
      3.40782136e-01 1.</_>
    <_>
      3.40782136e-01 1.</_>
    <_>
      3.40782136e-01 1.</_>
    <_>
      3.46368700e-01 1.</_>
    <_>
      3.40782136e-01 1.</_>
    <_>
      3.40782136e-01 1.</_>
    <_>
      3.40782136e-01 1.</_>
    <_>
      3.40782136e-01 1.</_>
    <_>
      3.35195541e-01 1.</_>
    <_>
      9.94413435e-01 9.68627453e-01</_>
    <_>
      9.94413435e-01 9.68627453e-01</_>
    <_>
      9.94413435e-01 9.76470590e-01</_>
    <_>
      9.94413435e-01 1.</_>
    <_>
      9.94413435e-01 1.</_>
    <_>
      9.94413435e-01 1.</_>
    <_>
      0. 9.13725495e-01</_>
    <_>
      9.88826811e-01 9.76470590e-01</_>
    <_>
      9.83240247e-01 9.92156863e-01</_>
    <_>
      9.88826811e-01 1.</_>
    <_>
      1. 1.</_>
    <_>
      1. 1.</_>
    <_>
      9.88826811e-01 9.60784316e-01</_>
    <_>
      9.88826811e-01 9.76470590e-01</_>
    <_>
      9.88826811e-01 9.76470590e-01</_>
    <_>
      9.88826811e-01 9.84313726e-01</_>
    <_>
      9.88826811e-01 1.</_>
    <_>
      9.88826811e-01 1.</_>
    <_>
      1. 1.</_>
    <_>
      1. 1.</_>
    <_>
      1. 9.68627453e-01</_>
    <_>
      9.94413435e-01 9.84313726e-01</_>
    <_>
      9.94413435e-01 1.</_>
    <_>
      1. 1.</_>
    <_>
      1. 1.</_>
    <_>
      9.88826811e-01 9.76470590e-01</_>
    <_>
      9.94413435e-01 9.76470590e-01</_>
    <_>
      9.94413435e-01 1.</_>
    <_>
      9.94413435e-01 1.</_>
    <_>
      9.94413435e-01 1.</_>
    <_>
      9.88826811e-01 9.92156863e-01</_>
    <_>
      9.94413435e-01 9.92156863e-01</_>
    <_>
      9.88826811e-01 1.</_>
    <_>
      9.94413435e-01 1.</_>
    <_>
      1. 1.</_>
    <_>
      9.88826811e-01 9.92156863e-01</_>
    <_>
      9.88826811e-01 9.68627453e-01</_>
    <_>
      9.94413435e-01 1.</_>
    <_>
      9.94413435e-01 1.</_>
    <_>
      1. 1.</_>
    <_>
      1. 1.</_>
    <_>
      9.94413435e-01 9.92156863e-01</_>
    <_>
      9.88826811e-01 9.84313726e-01</_>
    <_>
      5.58659201e-03 9.68627453e-01</_>
    <_>
      1. 9.92156863e-01</_>
    <_>
      1. 1.</_>
    <_>
      1. 1.</_>
    <_>
      1. 1.</_>
    <_>
      9.88826811e-01 9.84313726e-01</_>
    <_>
      9.88826811e-01 1.</_>
    <_>
      9.88826811e-01 9.84313726e-01</_>
    <_>
      9.94413435e-01 9.76470590e-01</_>
    <_>
      9.94413435e-01 9.84313726e-01</_>
    <_>
      1. 9.76470590e-01</_>
    <_>
      9.94413435e-01 1.</_>
    <_>
      1. 1.</_>
    <_>
      1. 1.</_>
    <_>
      9.94413435e-01 9.92156863e-01</_>
    <_>
      9.94413435e-01 9.92156863e-01</_>
    <_>
      9.94413435e-01 9.76470590e-01</_>
    <_>
      9.94413435e-01 9.84313726e-01</_>
    <_>
      1. 9.84313726e-01</_>
    <_>
      9.94413435e-01 1.</_>
    <_>
      9.94413435e-01 1.</_>
    <_>
      9.94413435e-01 1.</_>
    <_>
      9.88826811e-01 1.</_>
    <_>
      9.88826811e-01 1.</_>
    <_>
      9.83240247e-01 9.76470590e-01</_>
    <_>
      9.83240247e-01 9.92156863e-01</_>
    <_>
      9.88826811e-01 9.76470590e-01</_>
    <_>
      9.94413435e-01 9.76470590e-01</_>
    <_>
      9.94413435e-01 9.84313726e-01</_>
    <_>
      1. 1.</_>
    <_>
      9.88826811e-01 1.</_>
    <_>
      9.94413435e-01 1.</_>
    <_>
      9.94413435e-01 1.</_>
    <_>
      9.83240247e-01 9.92156863e-01</_>
    <_>
      9.88826811e-01 9.92156863e-01</_>
    <_>
      9.83240247e-01 9.92156863e-01</_>
    <_>
      9.83240247e-01 1.</_>
    <_>
      9.83240247e-01 9.84313726e-01</_>
    <_>
      9.94413435e-01 9.92156863e-01</_>
    <_>
      1. 9.76470590e-01</_>
    <_>
      1. 9.68627453e-01</_>
    <_>
      1. 1.</_>
    <_>
      9.94413435e-01 1.</_>
    <_>
      9.88826811e-01 1.</_>
    <_>
      9.88826811e-01 1.</_>
    <_>
      9.88826811e-01 1.</_>
    <_>
      9.88826811e-01 1.</_>
    <_>
      9.88826811e-01 1.</_>
    <_>
      9.88826811e-01 9.76470590e-01</_>
    <_>
      9.88826811e-01 9.84313726e-01</_>
    <_>
      9.94413435e-01 9.76470590e-01</_>
    <_>
      1. 9.76470590e-01</_>
    <_>
      1. 9.68627453e-01</_>
    <_>
      1. 9.84313726e-01</_>
    <_>
      1. 9.84313726e-01</_>
    <_>
      1. 9.84313726e-01</_>
    <_>
      1. 1.</_>
    <_>
      9.94413435e-01 1.</_>
    <_>
      9.94413435e-01 1.</_>
    <_>
      9.88826811e-01 1.</_>
    <_>
      9.88826811e-01 1.</_>
    <_>
      9.94413435e-01 1.</_>
    <_>
      9.94413435e-01 1.</_>
    <_>
      9.94413435e-01 9.84313726e-01</_>
    <_>
      1. 9.76470590e-01</_>
    <_>
      1. 9.68627453e-01</_>
    <_>
      1. 9.68627453e-01</_>
    <_>
      1. 9.68627453e-01</_>
    <_>
      1. 1.</_>
    <_>
      9.94413435e-01 1.</_>
    <_>
      9.94413435e-01 1.</_>
    <_>
      9.94413435e-01 1.</_>
    <_>
      9.88826811e-01 1.</_>
    <_>
      9.94413435e-01 1.</_>
    <_>
      9.94413435e-01 1.</_>
    <_>
      9.94413435e-01 9.84313726e-01</_>
    <_>
      1. 9.84313726e-01</_>
    <_>
      1. 9.76470590e-01</_>
    <_>
      1. 9.68627453e-01</_>
    <_>
      1. 1.</_>
    <_>
      1. 1.</_>
    <_>
      9.94413435e-01 1.</_>
    <_>
      9.94413435e-01 1.</_>
    <_>
      9.88826811e-01 1.</_>
    <_>
      5.64245820e-01 7.84313753e-02</_>
    <_>
      5.64245820e-01 7.84313753e-02</_>
    <_>
      5.69832385e-01 8.23529437e-02</_>
    <_>
      5.75419009e-01 8.62745121e-02</_>
    <_>
      5.75419009e-01 8.62745121e-02</_>
    <_>
      5.75419009e-01 8.62745121e-02</_>
    <_>
      5.64245820e-01 9.80392173e-02</_>
    <_>
      5.58659196e-01 8.62745121e-02</_>
    <_>
      5.64245820e-01 7.84313753e-02</_>
    <_>
      5.64245820e-01 7.84313753e-02</_>
    <_>
      5.64245820e-01 7.84313753e-02</_>
    <_>
      5.64245820e-01 7.84313753e-02</_>
    <_>
      5.69832385e-01 8.23529437e-02</_>
    <_>
      5.69832385e-01 8.23529437e-02</_>
    <_>
      5.75419009e-01 8.62745121e-02</_>
    <_>
      5.75419009e-01 9.01960805e-02</_>
    <_>
      5.69832385e-01 8.23529437e-02</_>
    <_>
      5.64245820e-01 7.84313753e-02</_>
    <_>
      5.58659196e-01 7.45098069e-02</_>
    <_>
      5.58659196e-01 7.45098069e-02</_>
    <_>
      5.36312878e-01 7.05882385e-02</_>
    <_>
      5.58659196e-01 7.45098069e-02</_>
    <_>
      5.81005573e-01 8.23529437e-02</_>
    <_>
      5.86592197e-01 8.62745121e-02</_>
    <_>
      5.86592197e-01 8.62745121e-02</_>
    <_>
      5.69832385e-01 8.23529437e-02</_>
    <_>
      5.36312878e-01 7.05882385e-02</_>
    <_>
      5.86592197e-01 8.62745121e-02</_>
    <_>
      5.86592197e-01 8.62745121e-02</_>
    <_>
      5.69832385e-01 8.23529437e-02</_>
    <_>
      5.75419009e-01 8.62745121e-02</_>
    <_>
      5.75419009e-01 8.62745121e-02</_>
    <_>
      5.75419009e-01 8.62745121e-02</_>
    <_>
      5.69832385e-01 8.23529437e-02</_>
    <_>
      5.75419009e-01 8.62745121e-02</_>
    <_>
      5.75419009e-01 8.62745121e-02</_>
    <_>
      5.36312878e-01 7.05882385e-02</_>
    <_>
      5.64245820e-01 7.84313753e-02</_>
    <_>
      5.64245820e-01 7.84313753e-02</_>
    <_>
      5.75419009e-01 8.62745121e-02</_>
    <_>
      5.86592197e-01 8.62745121e-02</_>
    <_>
      5.53072631e-01 7.05882385e-02</_>
    <_>
      5.64245820e-01 7.84313753e-02</_>
    <_>
      5.69832385e-01 8.62745121e-02</_>
    <_>
      5.53072631e-01 8.23529437e-02</_>
    <_>
      5.64245820e-01 7.84313753e-02</_>
    <_>
      5.81005573e-01 8.23529437e-02</_>
    <_>
      5.75419009e-01 8.62745121e-02</_>
    <_>
      5.69832385e-01 8.62745121e-02</_>
    <_>
      5.53072631e-01 7.84313753e-02</_>
    <_>
      5.81005573e-01 8.23529437e-02</_>
    <_>
      5.75419009e-01 8.62745121e-02</_>
    <_>
      5.64245820e-01 8.23529437e-02</_>
    <_>
      5.64245820e-01 7.84313753e-02</_>
    <_>
      5.81005573e-01 8.23529437e-02</_>
    <_>
      5.75419009e-01 8.62745121e-02</_>
    <_>
      5.64245820e-01 7.84313753e-02</_>
    <_>
      5.75419009e-01 8.62745121e-02</_>
    <_>
      5.64245820e-01 7.84313753e-02</_>
    <_>
      5.81005573e-01 8.23529437e-02</_>
    <_>
      5.75419009e-01 8.62745121e-02</_>
    <_>
      5.86592197e-01 8.62745121e-02</_>
    <_>
      5.64245820e-01 7.84313753e-02</_>
    <_>
      5.97765386e-01 9.41176489e-02</_>
    <_>
      5.36312878e-01 7.05882385e-02</_>
    <_>
      5.36312878e-01 7.05882385e-02</_>
    <_>
      5.64245820e-01 7.84313753e-02</_>
    <_>
      5.81005573e-01 9.01960805e-02</_>
    <_>
      5.86592197e-01 9.41176489e-02</_>
    <_>
      5.36312878e-01 7.05882385e-02</_>
    <_>
      5.36312878e-01 7.05882385e-02</_>
    <_>
      5.36312878e-01 6.66666701e-02</_>
    <_>
      5.30726254e-01 6.27451017e-02</_>
    <_>
      5.75419009e-01 8.62745121e-02</_>
    <_>
      5.81005573e-01 9.41176489e-02</_>
    <_>
      5.81005573e-01 1.01960786e-01</_>
    <_>
      0. 1.</_>
    <_>
      0. 1.</_>
    <_>
      5.58659201e-03 1.</_>
    <_>
      5.58659201e-03 1.</_>
    <_>
      5.58659201e-03 1.</_>
    <_>
      5.58659201e-03 1.</_>
    <_>
      5.58659201e-03 1.</_>
    <_>
      0. 1.</_>
    <_>
      0. 1.</_>
    <_>
      0. 1.</_>
    <_>
      0. 1.</_>
    <_>
      0. 1.</_>
    <_>
      0. 1.</_>
    <_>
      0. 1.</_>
    <_>
      0. 1.</_>
    <_>
      0. 1.</_>
    <_>
      0. 1.</_>
    <_>
      5.58659201e-03 1.</_>
    <_>
      5.58659201e-03 1.</_>
    <_>
      5.58659201e-03 1.</_>
    <_>
      0. 1.</_>
    <_>
      0. 1.</_>
    <_>
      0. 1.</_>
    <_>
      0. 1.</_>
    <_>
      0. 1.</_>
    <_>
      0. 1.</_>
    <_>
      0. 1.</_>
    <_>
      0. 1.</_>
    <_>
      0. 1.</_>
    <_>
      0. 1.</_>
    <_>
      0. 1.</_>
    <_>
      0. 1.</_>
    <_>
      0. 1.</_>
    <_>
      0. 1.</_>
    <_>
      0. 1.</_>
    <_>
      0. 1.</_>
    <_>
      0. 1.</_>
    <_>
      0. 1.</_>
    <_>
      0. 1.</_>
    <_>
      0. 1.</_>
    <_>
      5.58659201e-03 1.</_>
    <_>
      5.58659201e-03 1.</_>
    <_>
      0. 1.</_>
    <_>
      0. 1.</_>
    <_>
      5.58659201e-03 1.</_>
    <_>
      5.58659201e-03 1.</_>
    <_>
      0. 1.</_>
    <_>
      0. 1.</_>
    <_>
      0. 1.</_>
    <_>
      0. 1.</_>
    <_>
      0. 1.</_>
    <_>
      0. 1.</_>
    <_>
      0. 1.</_>
    <_>
      0. 1.</_>
    <_>
      5.58659201e-03 1.</_>
    <_>
      5.58659201e-03 1.</_>
    <_>
      5.58659201e-03 1.</_>
    <_>
      0. 1.</_>
    <_>
      0. 1.</_>
    <_>
      5.58659201e-03 1.</_>
    <_>
      5.58659201e-03 1.</_>
    <_>
      0. 1.</_>
    <_>
      0. 1.</_>
    <_>
      0. 1.</_>
    <_>
      0. 1.</_>
    <_>
      0. 1.</_>
    <_>
      0. 1.</_>
    <_>
      0. 1.</_>
    <_>
      0. 1.</_>
    <_>
      5.58659201e-03 1.</_>
    <_>
      5.58659201e-03 1.</_>
    <_>
      5.58659201e-03 1.</_>
    <_>
      0. 1.</_>
    <_>
      0. 1.</_>
    <_>
      0. 1.</_>
    <_>
      5.58659201e-03 1.</_>
    <_>
      0. 1.</_>
    <_>
      0. 1.</_>
    <_>
      0. 1.</_>
    <_>
      0. 1.</_>
    <_>
      0. 1.</_>
    <_>
      0. 1.</_>
    <_>
      0. 1.</_>
    <_>
      0. 1.</_>
    <_>
      5.58659201e-03 1.</_>
    <_>
      5.58659201e-03 1.</_>
    <_>
      0. 1.</_>
    <_>
      0. 1.</_>
    <_>
      5.58659201e-03 1.</_>
    <_>
      5.58659201e-03 1.</_>
    <_>
      5.58659201e-03 1.</_>
    <_>
      0. 1.</_>
    <_>
      0. 1.</_>
    <_>
      0. 1.</_>
    <_>
      0. 1.</_>
    <_>
      0. 1.</_>
    <_>
      0. 1.</_>
    <_>
      0. 1.</_>
    <_>
      0. 1.</_>
    <_>
      5.58659201e-03 1.</_>
    <_>
      5.58659201e-03 1.</_>
    <_>
      5.58659201e-03 1.</_>
    <_>
      5.58659201e-03 1.</_>
    <_>
      5.58659201e-03 1.</_>
    <_>
      5.58659201e-03 1.</_>
    <_>
      5.58659201e-03 1.</_>
    <_>
      0. 1.</_>
    <_>
      0. 1.</_>
    <_>
      0. 1.</_>
    <_>
      0. 1.</_>
    <_>
      0. 1.</_>
    <_>
      0. 1.</_>
    <_>
      5.58659201e-03 1.</_>
    <_>
      5.58659201e-03 1.</_>
    <_>
      0. 1.</_>
    <_>
      0. 1.</_>
    <_>
      0. 1.</_>
    <_>
      0. 1.</_>
    <_>
      0. 1.</_>
    <_>
      0. 1.</_>
    <_>
      0. 1.</_>
    <_>
      0. 1.</_>
    <_>
      0. 1.</_>
    <_>
      0. 1.</_>
    <_>
      0. 1.</_>
    <_>
      5.58659201e-03 1.</_>
    <_>
      5.58659201e-03 1.</_>
    <_>
      5.58659201e-03 1.</_>
    <_>
      0. 1.</_>
    <_>
      0. 1.</_>
    <_>
      0. 1.</_>
    <_>
      0. 1.</_>
    <_>
      0. 1.</_>
    <_>
      0. 1.</_>
    <_>
      0. 1.</_>
    <_>
      0. 1.</_>
    <_>
      0. 1.</_>
    <_>
      0. 1.</_>
    <_>
      0. 1.</_>
    <_>
      0. 1.</_>
    <_>
      0. 1.</_>
    <_>
      0. 1.</_>
    <_>
      0. 1.</_>
    <_>
      5.58659201e-03 1.</_>
    <_>
      0. 1.</_>
    <_>
      0. 1.</_>
    <_>
      0. 1.</_>
    <_>
      0. 1.</_>
    <_>
      0. 1.</_>
    <_>
      0. 1.</_>
    <_>
      0. 1.</_>
    <_>
      0. 1.</_>
    <_>
      0. 1.</_>
    <_>
      0. 1.</_>
    <_>
      0. 1.</_>
    <_>
      0. 1.</_>
    <_>
      0. 1.</_>
    <_>
      0. 1.</_>
    <_>
      5.58659201e-03 1.</_>
    <_>
      0. 1.</_>
    <_>
      0. 1.</_>
    <_>
      0. 1.</_>
    <_>
      0. 1.</_>
    <_>
      0. 1.</_>
    <_>
      0. 1.</_>
    <_>
      0. 1.</_>
    <_>
      0. 1.</_>
    <_>
      0. 1.</_>
    <_>
      0. 1.</_>
    <_>
      5.58659201e-03 1.</_>
    <_>
      0. 1.</_>
    <_>
      0. 1.</_>
    <_>
      5.58659201e-03 1.</_>
    <_>
      0. 1.</_>
    <_>
      0. 1.</_>
    <_>
      0. 1.</_>
    <_>
      0. 1.</_>
    <_>
      0. 1.</_>
    <_>
      5.58659201e-03 1.</_>
    <_>
      5.58659201e-03 1.</_>
    <_>
      0. 1.</_>
    <_>
      0. 1.</_>
    <_>
      0. 1.</_>
    <_>
      0. 1.</_>
    <_>
      0. 1.</_>
    <_>
      5.58659201e-03 1.</_>
    <_>
      5.58659201e-03 1.</_>
    <_>
      5.58659201e-03 1.</_>
    <_>
      0. 1.</_>
    <_>
      0. 1.</_>
    <_>
      0. 1.</_>
    <_>
      0. 1.</_>
    <_>
      0. 1.</_>
    <_>
      0. 1.</_>
    <_>
      0. 1.</_>
    <_>
      0. 1.</_>
    <_>
      0. 1.</_>
    <_>
      0. 1.</_>
    <_>
      0. 1.</_>
    <_>
      0. 1.</_>
    <_>
      5.58659201e-03 1.</_>
    <_>
      5.58659201e-03 1.</_>
    <_>
      5.58659201e-03 1.</_>
    <_>
      0. 1.</_>
    <_>
      0. 1.</_>
    <_>
      0. 1.</_>
    <_>
      0. 1.</_>
    <_>
      0. 1.</_>
    <_>
      0. 1.</_>
    <_>
      0. 1.</_>
    <_>
      5.81005573e-01 1.</_>
    <_>
      0. 1.</_>
    <_>
      5.58659201e-03 1.</_>
    <_>
      0. 1.</_>
    <_>
      0. 1.</_>
    <_>
      5.58659201e-03 1.</_>
    <_>
      0. 1.</_>
    <_>
      0. 1.</_>
    <_>
      5.58659201e-03 1.</_>
    <_>
      0. 1.</_>
    <_>
      5.58659201e-03 1.</_>
    <_>
      5.58659201e-03 1.</_>
    <_>
      5.58659201e-03 1.</_>
    <_>
      5.58659201e-03 1.</_>
    <_>
      5.58659201e-03 1.</_>
    <_>
      0. 1.</_>
    <_>
      5.58659201e-03 1.</_>
    <_>
      5.58659201e-03 1.</_>
    <_>
      5.58659201e-03 1.</_>
    <_>
      0. 1.</_>
    <_>
      0. 1.</_>
    <_>
      0. 1.</_>
    <_>
      0. 1.</_>
    <_>
      0. 1.</_>
    <_>
      0. 1.</_>
    <_>
      5.58659201e-03 1.</_>
    <_>
      5.58659201e-03 1.</_>
    <_>
      5.58659201e-03 1.</_>
    <_>
      5.58659201e-03 1.</_>
    <_>
      0. 1.</_>
    <_>
      0. 1.</_>
    <_>
      5.58659201e-03 1.</_>
    <_>
      5.58659201e-03 1.</_>
    <_>
      5.58659201e-03 1.</_>
    <_>
      0. 1.</_>
    <_>
      0. 1.</_>
    <_>
      0. 1.</_>
    <_>
      5.58659201e-03 1.</_>
    <_>
      0. 1.</_>
    <_>
      0. 1.</_>
    <_>
      5.58659201e-03 1.</_>
    <_>
      0. 1.</_>
    <_>
      5.58659201e-03 1.</_>
    <_>
      5.58659201e-03 1.</_>
    <_>
      0. 1.</_>
    <_>
      0. 1.</_>
    <_>
      0. 1.</_>
    <_>
      0. 1.</_>
    <_>
      0. 1.</_>
    <_>
      0. 1.</_>
    <_>
      0. 1.</_>
    <_>
      5.58659201e-03 1.</_>
    <_>
      5.58659201e-03 1.</_>
    <_>
      0. 1.</_>
    <_>
      0. 1.</_>
    <_>
      0. 1.</_>
    <_>
      0. 1.</_>
    <_>
      5.58659201e-03 1.</_>
    <_>
      0. 1.</_>
    <_>
      0. 1.</_>
    <_>
      0. 1.</_>
    <_>
      0. 1.</_>
    <_>
      0. 1.</_>
    <_>
      0. 1.</_>
    <_>
      0. 1.</_>
    <_>
      0. 1.</_>
    <_>
      5.58659201e-03 1.</_>
    <_>
      0. 1.</_>
    <_>
      5.58659201e-03 1.</_>
    <_>
      5.58659201e-03 1.</_>
    <_>
      0. 1.</_>
    <_>
      5.58659201e-03 1.</_>
    <_>
      5.58659201e-03 1.</_>
    <_>
      0. 1.</_>
    <_>
      0. 1.</_>
    <_>
      0. 1.</_>
    <_>
      0. 1.</_>
    <_>
      0. 1.</_>
    <_>
      0. 1.</_>
    <_>
      0. 1.</_>
    <_>
      5.58659201e-03 1.</_>
    <_>
      5.58659201e-03 1.</_>
    <_>
      0. 1.</_>
    <_>
      5.58659201e-03 1.</_>
    <_>
      0. 1.</_>
    <_>
      0. 1.</_>
    <_>
      5.58659201e-03 1.</_>
    <_>
      5.58659201e-03 1.</_>
    <_>
      0. 1.</_>
    <_>
      0. 1.</_>
    <_>
      0. 1.</_>
    <_>
      0. 1.</_>
    <_>
      5.58659201e-03 1.</_>
    <_>
      0. 1.</_>
    <_>
      0. 1.</_>
    <_>
      5.58659201e-03 1.</_>
    <_>
      0. 1.</_>
    <_>
      5.58659201e-03 1.</_>
    <_>
      5.58659201e-03 1.</_>
    <_>
      5.58659201e-03 1.</_>
    <_>
      5.58659201e-03 1.</_>
    <_>
      5.58659201e-03 1.</_>
    <_>
      5.58659201e-03 1.</_>
    <_>
      0. 1.</_>
    <_>
      0. 1.</_>
    <_>
      0. 1.</_>
    <_>
      5.58659201e-03 1.</_>
    <_>
      0. 1.</_>
    <_>
      0. 1.</_>
    <_>
      0. 1.</_>
    <_>
      5.58659201e-03 1.</_>
    <_>
      5.58659201e-03 1.</_>
    <_>
      5.58659201e-03 1.</_>
    <_>
      5.58659201e-03 1.</_>
    <_>
      5.58659201e-03 1.</_>
    <_>
      5.58659201e-03 1.</_>
    <_>
      5.58659201e-03 1.</_>
    <_>
      5.58659201e-03 1.</_>
    <_>
      5.58659201e-03 1.</_>
    <_>
      0. 1.</_>
    <_>
      0. 1.</_>
    <_>
      0. 1.</_>
    <_>
      0. 1.</_>
    <_>
      0. 1.</_>
    <_>
      0. 1.</_>
    <_>
      0. 1.</_>
    <_>
      5.58659201e-03 1.</_>
    <_>
      0. 1.</_>
    <_>
      5.58659201e-03 1.</_>
    <_>
      5.58659201e-03 1.</_>
    <_>
      0. 1.</_>
    <_>
      5.58659201e-03 1.</_>
    <_>
      5.58659201e-03 1.</_>
    <_>
      5.58659201e-03 1.</_>
    <_>
      0. 1.</_>
    <_>
      5.58659201e-03 1.</_>
    <_>
      0. 1.</_>
    <_>
      0. 1.</_>
    <_>
      0. 1.</_>
    <_>
      0. 1.</_>
    <_>
      0. 1.</_>
    <_>
      5.58659201e-03 1.</_>
    <_>
      5.58659201e-03 1.</_>
    <_>
      5.58659201e-03 1.</_>
    <_>
      5.58659201e-03 1.</_>
    <_>
      0. 1.</_>
    <_>
      5.58659201e-03 1.</_>
    <_>
      5.58659201e-03 1.</_>
    <_>
      5.58659201e-03 1.</_>
    <_>
      0. 1.</_>
    <_>
      5.58659201e-03 1.</_>
    <_>
      0. 1.</_>
    <_>
      0. 1.</_>
    <_>
      0. 1.</_>
    <_>
      0. 1.</_>
    <_>
      0. 1.</_>
    <_>
      5.58659201e-03 1.</_>
    <_>
      5.58659201e-03 1.</_>
    <_>
      5.58659201e-03 1.</_>
    <_>
      5.58659201e-03 1.</_>
    <_>
      5.58659201e-03 1.</_>
    <_>
      5.58659201e-03 1.</_>
    <_>
      5.58659201e-03 1.</_>
    <_>
      5.58659201e-03 1.</_>
    <_>
      5.58659201e-03 1.</_>
    <_>
      5.58659201e-03 1.</_>
    <_>
      0. 1.</_>
    <_>
      0. 1.</_>
    <_>
      0. 1.</_>
    <_>
      0. 1.</_>
    <_>
      0. 1.</_>
    <_>
      0. 1.</_>
    <_>
      0. 1.</_>
    <_>
      0. 1.</_>
    <_>
      5.58659201e-03 1.</_>
    <_>
      5.58659201e-03 1.</_>
    <_>
      5.58659201e-03 1.</_>
    <_>
      0. 1.</_>
    <_>
      0. 1.</_>
    <_>
      5.58659201e-03 1.</_>
    <_>
      5.58659201e-03 1.</_>
    <_>
      5.58659201e-03 1.</_>
    <_>
      5.58659201e-03 1.</_>
    <_>
      0. 1.</_>
    <_>
      0. 1.</_>
    <_>
      0. 1.</_>
    <_>
      0. 1.</_>
    <_>
      0. 1.</_>
    <_>
      0. 1.</_>
    <_>
      0. 1.</_>
    <_>
      0. 1.</_>
    <_>
      5.58659201e-03 1.</_>
    <_>
      0. 1.</_>
    <_>
      0. 1.</_>
    <_>
      0. 1.</_>
    <_>
      0. 1.</_>
    <_>
      5.58659201e-03 1.</_>
    <_>
      0. 1.</_>
    <_>
      0. 1.</_>
    <_>
      0. 1.</_>
    <_>
      0. 1.</_>
    <_>
      0. 1.</_>
    <_>
      0. 1.</_>
    <_>
      0. 1.</_>
    <_>
      0. 1.</_>
    <_>
      0. 1.</_>
    <_>
      5.58659201e-03 1.</_>
    <_>
      0. 1.</_>
    <_>
      5.58659201e-03 1.</_>
    <_>
      0. 1.</_>
    <_>
      0. 1.</_>
    <_>
      5.58659201e-03 1.</_>
    <_>
      5.58659201e-03 1.</_>
    <_>
      5.58659201e-03 1.</_>
    <_>
      5.58659201e-03 1.</_>
    <_>
      5.58659201e-03 1.</_>
    <_>
      0. 1.</_>
    <_>
      0. 1.</_>
    <_>
      0. 1.</_>
    <_>
      0. 1.</_>
    <_>
      0. 1.</_>
    <_>
      0. 1.</_>
    <_>
      0. 1.</_>
    <_>
      5.58659201e-03 1.</_>
    <_>
      0. 1.</_>
    <_>
      0. 1.</_></support_vectors>
  <decision_functions>
    <_>
      <sv_count>5</sv_count>
      <rho>4.6470649141862602e-01</rho>
      <alpha>
        7.3202294498312375e+00 -6.8141273766534045e+00
        -4.9240002154609760e-02 -7.5683709699951057e-02
        -3.8117836132327310e-01</alpha>
      <index>
        1173 2019 272 186 187</index></_>
    <_>
      <sv_count>455</sv_count>
      <rho>5.1198307511189400e-01</rho>
      <alpha>
