<?xml version="1.0"?>
<opencv_storage>
<opencv_ml_svm>
  <format>3</format>
  <svmType>C_SVC</svmType>
  <kernel>
    <type>CHI2</type>
    <gamma>5.</gamma></kernel>
  <C>10.</C>
  <term_criteria><epsilon>5.0000000000000002e-05</epsilon>
    <iterations>80000</iterations></term_criteria>
  <var_count>2</var_count>
  <class_count>6</class_count>
  <class_labels type_id="opencv-matrix">
    <rows>6</rows>
    <cols>1</cols>
    <dt>i</dt>
    <data>
      98 103 111 114 119 121</data></class_labels>
  <sv_total>350</sv_total>
  <support_vectors>
    <_>
      5.81005573e-01 1.09803922e-01</_>
    <_>
      0. 1.</_>
    <_>
      0. 1.</_>
    <_>
      0. 1.</_>
    <_>
      0. 1.</_>
    <_>
      0. 1.</_>
    <_>
      0. 1.</_>
    <_>
      0. 1.</_>
    <_>
      0. 1.</_>
    <_>
      0. 1.</_>
    <_>
      0. 1.</_>
    <_>
      0. 1.</_>
    <_>
      0. 1.</_>
    <_>
      0. 1.</_>
    <_>
      0. 1.</_>
    <_>
      0. 1.</_>
    <_>
      0. 1.</_>
    <_>
      0. 1.</_>
    <_>
      0. 1.</_>
    <_>
      0. 1.</_>
    <_>
      0. 1.</_>
    <_>
      0. 1.</_>
    <_>
      0. 1.</_>
    <_>
      0. 1.</_>
    <_>
      0. 1.</_>
    <_>
      0. 1.</_>
    <_>
      0. 1.</_>
    <_>
      0. 1.</_>
    <_>
      0. 1.</_>
    <_>
      0. 1.</_>
    <_>
      0. 1.</_>
    <_>
      0. 1.</_>
    <_>
      0. 1.</_>
    <_>
      0. 1.</_>
    <_>
      0. 1.</_>
    <_>
      0. 1.</_>
    <_>
      0. 1.</_>
    <_>
      0. 1.</_>
    <_>
      0. 1.</_>
    <_>
      0. 1.</_>
    <_>
      0. 1.</_>
    <_>
      0. 1.</_>
    <_>
      0. 1.</_>
    <_>
      0. 1.</_>
    <_>
      0. 1.</_>
    <_>
      0. 1.</_>
    <_>
      0. 1.</_>
    <_>
      0. 1.</_>
    <_>
      0. 1.</_>
    <_>
      0. 1.</_>
    <_>
      0. 1.</_>
    <_>
      0. 1.</_>
    <_>
      0. 1.</_>
    <_>
      0. 1.</_>
    <_>
      0. 1.</_>
    <_>
      0. 1.</_>
    <_>
      0. 1.</_>
    <_>
      0. 1.</_>
    <_>
      0. 1.</_>
    <_>
      0. 1.</_>
    <_>
      0. 1.</_>
    <_>
      0. 1.</_>
    <_>
      0. 1.</_>
    <_>
      0. 1.</_>
    <_>
      0. 1.</_>
    <_>
      0. 1.</_>
    <_>
      0. 1.</_>
    <_>
      0. 1.</_>
    <_>
      0. 1.</_>
    <_>
      0. 1.</_>
    <_>
      0. 1.</_>
    <_>
      0. 1.</_>
    <_>
      0. 1.</_>
    <_>
      0. 1.</_>
    <_>
      0. 1.</_>
    <_>
      0. 1.</_>
    <_>
      0. 1.</_>
    <_>
      0. 1.</_>
    <_>
      0. 1.</_>
    <_>
      0. 1.</_>
    <_>
      0. 1.</_>
    <_>
      0. 1.</_>
    <_>
      0. 1.</_>
    <_>
      0. 1.</_>
    <_>
      0. 1.</_>
    <_>
      0. 1.</_>
    <_>
      0. 1.</_>
    <_>
      0. 1.</_>
    <_>
      0. 1.</_>
    <_>
      0. 1.</_>
    <_>
      0. 1.</_>
    <_>
      0. 1.</_>
    <_>
      0. 1.</_>
    <_>
      0. 1.</_>
    <_>
      0. 1.</_>
    <_>
      0. 1.</_>
    <_>
      0. 1.</_>
    <_>
      0. 1.</_>
    <_>
      0. 1.</_>
    <_>
      0. 1.</_>
    <_>
      0. 1.</_>
    <_>
      0. 1.</_>
    <_>
      0. 1.</_>
    <_>
      0. 1.</_>
    <_>
      0. 1.</_>
    <_>
      0. 1.</_>
    <_>
      0. 1.</_>
    <_>
      0. 1.</_>
    <_>
      0. 1.</_>
    <_>
      0. 1.</_>
    <_>
      0. 1.</_>
    <_>
      0. 1.</_>
    <_>
      0. 1.</_>
    <_>
      0. 1.</_>
    <_>
      0. 1.</_>
    <_>
      0. 1.</_>
    <_>
      0. 1.</_>
    <_>
      0. 1.</_>
    <_>
      0. 1.</_>
    <_>
      0. 1.</_>
    <_>
      0. 1.</_>
    <_>
      0. 1.</_>
    <_>
      0. 1.</_>
    <_>
      0. 1.</_>
    <_>
      0. 1.</_>
    <_>
      0. 1.</_>
    <_>
      0. 1.</_>
    <_>
      0. 1.</_>
    <_>
      0. 1.</_>
    <_>
      0. 1.</_>
    <_>
      0. 1.</_>
    <_>
      0. 1.</_>
    <_>
      0. 1.</_>
    <_>
      0. 1.</_>
    <_>
      0. 1.</_>
    <_>
      0. 1.</_>
    <_>
      0. 1.</_>
    <_>
      0. 1.</_>
    <_>
      0. 1.</_>
    <_>
      0. 1.</_>
    <_>
      0. 1.</_>
    <_>
      0. 1.</_>
    <_>
      0. 1.</_>
    <_>
      0. 1.</_>
    <_>
      0. 1.</_>
    <_>
      0. 1.</_>
    <_>
      0. 1.</_>
    <_>
      0. 1.</_>
    <_>
      0. 1.</_>
    <_>
      0. 1.</_>
    <_>
      0. 1.</_>
    <_>
      0. 1.</_>
    <_>
      0. 1.</_>
    <_>
      0. 1.</_>
    <_>
      0. 1.</_>
    <_>
      0. 1.</_>
    <_>
      0. 1.</_>
    <_>
      0. 1.</_>
    <_>
      0. 1.</_>
    <_>
      0. 1.</_>
    <_>
      0. 1.</_>
    <_>
      0. 1.</_>
    <_>
      0. 1.</_>
    <_>
      0. 1.</_>
    <_>
      0. 1.</_>
    <_>
      0. 1.</_>
    <_>
      5.47486007e-01 3.92156877e-02</_>
    <_>
      9.88826811e-01 1.</_>
    <_>
      1. 1.</_>
    <_>
      0. 1.</_>
    <_>
      0. 1.</_>
    <_>
      0. 1.</_>
    <_>
      0. 1.</_>
    <_>
      0. 1.</_>
    <_>
      0. 1.</_>
    <_>
      0. 1.</_>
    <_>
      0. 1.</_>
    <_>
      0. 1.</_>
    <_>
      0. 1.</_>
    <_>
      0. 1.</_>
    <_>
      0. 1.</_>
    <_>
      0. 1.</_>
    <_>
      0. 1.</_>
    <_>
      0. 1.</_>
    <_>
      0. 1.</_>
    <_>
      0. 1.</_>
    <_>
      0. 1.</_>
    <_>
      0. 1.</_>
    <_>
      0. 1.</_>
    <_>
      0. 1.</_>
    <_>
      0. 1.</_>
    <_>
      0. 1.</_>
    <_>
      0. 1.</_>
    <_>
      0. 1.</_>
    <_>
      0. 1.</_>
    <_>
      0. 1.</_>
    <_>
      0. 1.</_>
    <_>
      0. 1.</_>
    <_>
      0. 1.</_>
    <_>
      0. 1.</_>
    <_>
      0. 1.</_>
    <_>
      0. 1.</_>
    <_>
      0. 1.</_>
    <_>
      0. 1.</_>
    <_>
      0. 1.</_>
    <_>
      0. 1.</_>
    <_>
      0. 1.</_>
    <_>
      0. 1.</_>
    <_>
      0. 1.</_>
    <_>
      0. 1.</_>
    <_>
      0. 1.</_>
    <_>
      0. 1.</_>
    <_>
      0. 1.</_>
    <_>
      0. 1.</_>
    <_>
      0. 1.</_>
    <_>
      0. 1.</_>
    <_>
      0. 1.</_>
    <_>
      0. 1.</_>
    <_>
      0. 1.</_>
    <_>
      0. 1.</_>
    <_>
      0. 1.</_>
    <_>
      0. 1.</_>
    <_>
      0. 1.</_>
    <_>
      0. 1.</_>
    <_>
      0. 1.</_>
    <_>
      0. 1.</_>
    <_>
      0. 1.</_>
    <_>
      0. 1.</_>
    <_>
      0. 1.</_>
    <_>
      0. 1.</_>
    <_>
      0. 1.</_>
    <_>
      0. 1.</_>
    <_>
      0. 1.</_>
    <_>
      0. 1.</_>
    <_>
      0. 1.</_>
    <_>
      0. 1.</_>
    <_>
      0. 1.</_>
    <_>
      0. 1.</_>
    <_>
      0. 1.</_>
    <_>
      0. 1.</_>
    <_>
      0. 1.</_>
    <_>
      0. 1.</_>
    <_>
      0. 1.</_>
    <_>
      0. 1.</_>
    <_>
      0. 1.</_>
    <_>
      0. 1.</_>
    <_>
      0. 1.</_>
    <_>
      0. 1.</_>
    <_>
      0. 1.</_>
    <_>
      0. 1.</_>
    <_>
      0. 1.</_>
    <_>
      0. 1.</_>
    <_>
      0. 1.</_>
    <_>
      0. 1.</_>
    <_>
      0. 1.</_>
    <_>
      0. 1.</_>
    <_>
      0. 1.</_>
    <_>
      0. 1.</_>
    <_>
      0. 1.</_>
    <_>
      0. 1.</_>
    <_>
      0. 1.</_>
    <_>
      0. 1.</_>
    <_>
      0. 1.</_>
    <_>
      0. 1.</_>
    <_>
      0. 1.</_>
    <_>
      0. 1.</_>
    <_>
      0. 1.</_>
    <_>
      0. 1.</_>
    <_>
      0. 1.</_>
    <_>
      0. 1.</_>
    <_>
      0. 1.</_>
    <_>
      0. 1.</_>
    <_>
      0. 1.</_>
    <_>
      0. 1.</_>
    <_>
      0. 1.</_>
    <_>
      0. 1.</_>
    <_>
      0. 1.</_>
    <_>
      0. 1.</_>
    <_>
      0. 1.</_>
    <_>
      0. 1.</_>
    <_>
      0. 1.</_>
    <_>
      0. 1.</_>
    <_>
      5.58659201e-03 1.</_>
    <_>
      5.58659201e-03 1.</_>
    <_>
      0. 1.</_>
    <_>
      5.58659201e-03 1.</_>
    <_>
      0. 1.</_>
    <_>
      0. 1.</_>
    <_>
      0. 1.</_>
    <_>
      0. 1.</_>
    <_>
      0. 1.</_>
    <_>
      5.58659201e-03 1.</_>
    <_>
      0. 1.</_>
    <_>
      0. 1.</_>
    <_>
      0. 1.</_>
    <_>
      0. 1.</_>
    <_>
      0. 1.</_>
    <_>
      0. 1.</_>
    <_>
      0. 1.</_>
    <_>
      0. 1.</_>
    <_>
      0. 1.</_>
    <_>
      0. 1.</_>
    <_>
      0. 1.</_>
    <_>
      0. 1.</_>
    <_>
      0. 1.</_>
    <_>
      0. 1.</_>
    <_>
      0. 1.</_>
    <_>
      0. 1.</_>
    <_>
      0. 1.</_>
    <_>
      0. 1.</_>
    <_>
      0. 1.</_>
    <_>
      0. 1.</_>
    <_>
      0. 1.</_>
    <_>
      0. 1.</_>
    <_>
      0. 1.</_>
    <_>
      0. 1.</_>
    <_>
      0. 1.</_>
    <_>
      0. 1.</_>
    <_>
      0. 1.</_>
    <_>
      0. 1.</_>
    <_>
      0. 1.</_>
    <_>
      0. 1.</_>
    <_>
      0. 1.</_>
    <_>
      0. 1.</_>
    <_>
      0. 1.</_>
    <_>
      0. 1.</_>
    <_>
      0. 1.</_>
    <_>
      0. 1.</_>
    <_>
      0. 1.</_>
    <_>
      0. 1.</_>
    <_>
      0. 1.</_>
    <_>
      0. 1.</_>
    <_>
      0. 1.</_>
    <_>
      0. 1.</_>
    <_>
      0. 1.</_>
    <_>
      0. 1.</_>
    <_>
      2.23463681e-02 1.</_>
    <_>
      6.14525139e-01 4.31372561e-02</_>
    <_>
      5.81005573e-01 9.72549021e-01</_>
    <_>
      5.75419009e-01 1.</_>
    <_>
      5.86592197e-01 1.</_>
    <_>
      3.51955295e-01 9.05882359e-01</_>
    <_>
      3.18435758e-01 9.56862748e-01</_>
    <_>
      3.46368700e-01 8.90196085e-01</_>
    <_>
      3.35195541e-01 8.78431380e-01</_>
    <_>
      2.01117322e-01 8.50980401e-01</_>
    <_>
      2.06703916e-01 9.68627453e-01</_>
    <_>
      2.06703916e-01 8.54901969e-01</_>
    <_>
      2.01117322e-01 1.</_>
    <_>
      1.95530728e-01 1.</_></support_vectors>
  <decision_functions>
    <_>
      <sv_count>3</sv_count>
      <rho>-1.9419254821061343e-03</rho>
      <alpha>
        2.3548046671859777e+00 1.5938449618397637e+00
        -3.9486496290257413e+00</alpha>
      <index>
        339 338 341</index></_>
    <_>
      <sv_count>4</sv_count>
      <rho>2.8012374781918280e-02</rho>
      <alpha>
        1.1028393289927647e+00 1.3432639760200661e-03
        -4.4196867031630283e-01 -6.6221392265248180e-01</alpha>
      <index>
        339 338 290 336</index></_>
    <_>
      <sv_count>3</sv_count>
      <rho>4.9379711271617305e-01</rho>
      <alpha>
        2.8480009939129074e+00 -6.4211604478799145e-01
        -2.2058849491249157e+00</alpha>
      <index>
        340 88 167</index></_>
    <_>
      <sv_count>3</sv_count>
      <rho>4.1602362525103430e-02</rho>
      <alpha>
        1.0670849224670091e+00 -4.7057013427706451e-01
        -5.9651478818994430e-01</alpha>
      <index>
        338 166 0</index></_>
    <_>
      <sv_count>3</sv_count>
      <rho>8.9745017958204644e-03</rho>
      <alpha>
        1.7224852389847596e+00 -3.1538825501577916e-01
        -1.4070969839689802e+00</alpha>
      <index>
        339 347 346</index></_>
    <_>
      <sv_count>3</sv_count>
      <rho>1.9389456674574479e-02</rho>
      <alpha>
        1.3842810417821609e+00 -2.1760118621358834e-01
        -1.1666798555685725e+00</alpha>
      <index>
        342 290 336</index></_>
    <_>
      <sv_count>4</sv_count>
      <rho>4.3893987991725986e-01</rho>
      <alpha>
        1.0042979262081477e+00 7.9168993247931763e-01
        -8.8376063468839539e-01 -9.1222722399906997e-01</alpha>
      <index>
        341 342 88 167</index></_>
    <_>
      <sv_count>5</sv_count>
      <rho>3.8173169343612590e-02</rho>
      <alpha>
        3.3090136830325273e-02 7.8099754588964387e-01
        2.5852338746220177e-01 -4.7582288725560551e-01
        -5.9678818292656510e-01</alpha>
      <index>
        343 344 342 166 0</index></_>
    <_>
      <sv_count>3</sv_count>
      <rho>3.8500326074255929e-02</rho>
      <alpha>
        8.9553399716724797e+00 -1.2912633191554093e+00
        -7.6640766525170738e+00</alpha>
      <index>
        342 347 346</index></_>
    <_>
      <sv_count>333</sv_count>
      <rho>5.0764652391106879e-01</rho>
      <alpha>
        9.9583109807864378e+00 10. 10. 10. 10. 10. 10. 10. 10.
        6.6093978381668039e+00 10. 10. 10. 10. 10. 10. 10. 10. 10. 10.
        10. 10. 10. 10. 10. 10. 10. 10. 10. 10. 10. 10. 10. 10. 10. 10.
        10. 10. 10. 10. 10. 10. 10. 10. 10. 10. 10. 10. 10. 10. 10. 10.
        10. 10. 10. 10. 10. 10. 10. 10. 10. 10. 10. 10. 10. 10. 10. 10.
        10. 10. 10. 10. 10. 10. 10. 10. 10. 10. 10. 10. 10. 10. 10. 10.
        10. 10. 10. 10. 10. 10. 10. 10. 10. 10. 10. 10. 10. 10. 10. 10.
        10. 10. 10. 10. 10. 10. 10. 10. 10. 10. 10. 10. 10. 10. 10. 10.
        10. 10. 10. 10. 10. 10. 10. 10. 10. 10. 10. 10. 10. 10. 10. 10.
        10. 10. 10. 10. 10. 10. 10. 10. 10. 10. 10. 10. 10. 10. 10. 10.
        10. 10. 10. 10. 10. 10. 10. 10. 10. 10. 10. 10. 10. 10. 10. 10.
        10. 10. -10. -10. -10. -10. -10. -10. -10. -10. -10. -10. -10.
        -10. -10. -10. -10. -10. -10. -10. -10. -10. -10. -10. -10. -10.
        -10. -10. -10. -10. -10. -10. -10. -10. -10. -10. -10. -10. -10.
        -10. -10. -10. -10. -10. -10. -10. -10. -10. -10. -10. -10. -10.
        -10. -10. -10. -10. -10. -10. -10. -10. -10. -10. -10. -10. -10.
        -10. -10. -10. -10. -10. -10. -10. -10. -10. -10. -10. -10. -10.
        -10. -10. -10. -10. -10. -10. -10. -10. -10. -10. -10. -10. -10.
        -10. -10. -10. -10. -10. -10. -10. -10. -10. -10. -10. -10. -10.
        -10. -10. -10. -10. -10. -10. -10. -10. -10. -10. -10. -10. -10.
        -10. -10. -10. -10. -10. -10. -10. -10. -10. -10. -10. -10. -10.
        -10. -10. -10. -10. -10. -10. -10. -10. -10. -10. -10. -10. -10.
        -10. -10. -10. -10. -10. -10. -10. -10. -10. -10. -10. -10. -10.
        -10. -10. -10. -10. -10. -10. -10. -10. -10. -10. -10.
        -6.0490670659737349e+00 -5.1864175297950899e-01</alpha>
      <index>
        291 290 289 288 287 286 285 284 283 282 281 280 279 292 293 294
        295 296 297 298 299 300 301 302 267 257 258 259 260 261 262 263
        264 265 266 278 268 269 270 271 272 273 274 275 276 277 322 323
        324 325 326 327 328 329 330 331 332 333 334 335 312 304 305 306
        307 308 309 310 311 303 313 314 315 316 317 318 319 320 321 188
        189 190 191 192 193 194 195 196 197 198 199 200 201 202 203 204
        205 206 207 170 171 172 173 174 175 176 177 178 208 179 180 181
        182 183 184 185 186 187 244 233 234 235 236 237 238 239 240 241
        242 243 232 245 246 247 248 249 250 251 252 253 254 255 220 209
        210 211 212 213 214 215 216 217 218 219 256 221 222 223 224 225
        226 227 228 229 230 231 88 69 96 95 94 93 92 91 90 89 87 86 85
        84 97 98 99 100 101 102 103 104 105 106 107 108 109 55 68 165 56
        57 58 59 60 61 62 63 64 65 66 67 83 70 71 72 73 74 75 76 77 78
        79 80 81 82 153 139 140 141 142 143 144 145 146 147 148 149 150
        151 152 138 154 155 156 157 158 159 160 161 162 163 164 54 1 124
        111 112 113 114 115 116 117 118 119 120 121 122 123 110 125 126
        127 128 129 130 131 132 133 134 135 136 137 39 25 26 27 28 29 30
        31 32 33 34 35 36 37 38 24 40 41 42 43 44 45 46 47 48 49 50 51
        52 14 169 2 3 4 5 6 7 8 9 10 11 12 13 53 15 16 17 18 19 20 21 22
        23 167</index></_>
    <_>
      <sv_count>5</sv_count>
      <rho>1.4057943565696668e-02</rho>
      <alpha>
        5.3389896481598897e-01 5.3829587538781909e-01
        -5.2588444714490901e-01 -5.3816046624274816e-01
        -8.1499268161507807e-03</alpha>
      <index>
        290 336 166 0 337</index></_>
    <_>
      <sv_count>3</sv_count>
      <rho>1.4521654652172500e-02</rho>
      <alpha>
        2.0146677999603266e+00 -1.7252262697595677e+00
        -2.8944153020075941e-01</alpha>
      <index>
        336 349 345</index></_>
    <_>
      <sv_count>6</sv_count>
      <rho>-2.9569768526032869e-01</rho>
      <alpha>
        7.0088652245601490e-01 1.1816296873595877e-01
        5.9763900878984533e-01 -6.5817422628011402e-01
        -7.2964461938868419e-01 -2.8869654313020614e-02</alpha>
      <index>
        88 168 167 166 0 337</index></_>
    <_>
      <sv_count>4</sv_count>
      <rho>-4.2759045265937823e-01</rho>
      <alpha>
        1.3008804007879149e+00 7.0329990607034787e-01
        -1.3578084282991367e+00 -6.4637187855912603e-01</alpha>
      <index>
        88 167 349 345</index></_>
    <_>
      <sv_count>5</sv_count>
      <rho>-2.6952158405489403e-02</rho>
      <alpha>
        5.0467983507142133e-01 5.6729721362866792e-01
        -3.1512177697114979e-01 -1.3925613308030502e-01
        -6.1759913864863447e-01</alpha>
      <index>
        166 0 348 349 345</index></_></decision_functions></opencv_ml_svm>
</opencv_storage>
