<?xml version="1.0"?>
<opencv_storage>
<opencv_ml_svm>
  <format>3</format>
  <svmType>C_SVC</svmType>
  <kernel>
    <type>CHI2</type>
    <gamma>5.</gamma></kernel>
  <C>10.</C>
  <term_criteria><epsilon>5.0000000000000002e-05</epsilon>
    <iterations>80000</iterations></term_criteria>
  <var_count>2</var_count>
  <class_count>6</class_count>
  <class_labels type_id="opencv-matrix">
    <rows>6</rows>
    <cols>1</cols>
    <dt>i</dt>
    <data>
      98 103 111 114 119 121</data></class_labels>
  <sv_total>26</sv_total>
  <support_vectors>
    <_>
      3.24022353e-01 8.35294127e-01</_>
    <_>
      6.48044705e-01 1.33333340e-01</_>
    <_>
      0. 1.</_>
    <_>
      0. 1.</_>
    <_>
      9.88826811e-01 1.</_>
    <_>
      1. 9.84313726e-01</_>
    <_>
      1.95530728e-01 1.</_>
    <_>
      2.01117322e-01 1.</_>
    <_>
      6.03351951e-01 1.</_>
    <_>
      5.86592197e-01 9.88235295e-01</_>
    <_>
      5.92178762e-01 9.17647064e-01</_>
    <_>
      5.86592197e-01 1.</_>
    <_>
      5.97765386e-01 9.01960790e-01</_>
    <_>
      3.12849164e-01 9.33333337e-01</_>
    <_>
      3.07262570e-01 9.29411769e-01</_>
    <_>
      3.24022353e-01 8.98039222e-01</_>
    <_>
      1.95530728e-01 5.76470613e-01</_>
    <_>
      2.01117322e-01 8.94117653e-01</_>
    <_>
      2.01117322e-01 8.74509811e-01</_>
    <_>
      2.01117322e-01 7.37254918e-01</_>
    <_>
      2.01117322e-01 9.09803927e-01</_>
    <_>
      6.64804459e-01 9.01960805e-02</_>
    <_>
      2.23463681e-02 1.</_>
    <_>
      1.11731840e-02 1.</_>
    <_>
      1.11731840e-02 1.</_>
    <_>
      1.73184350e-01 8.11764717e-01</_></support_vectors>
  <decision_functions>
    <_>
      <sv_count>3</sv_count>
      <rho>-8.9546929376322099e-03</rho>
      <alpha>
        2.0686619891484077e+00 1.0190106961959617e+00
        -3.0876726853443710e+00</alpha>
      <index>
        10 9 15</index></_>
    <_>
      <sv_count>4</sv_count>
      <rho>-3.1097954225793685e-03</rho>
      <alpha>
        6.5991234389358400e-01 4.2465308448022809e-01
        -8.4191704909309317e-01 -2.4264837928071903e-01</alpha>
      <index>
        11 12 22 24</index></_>
    <_>
      <sv_count>4</sv_count>
      <rho>4.9327150981252477e-01</rho>
      <alpha>
        2.7094036184978072e+00 3.2744749851864569e-01
        -2.3984504580292971e+00 -6.3840065898715559e-01</alpha>
      <index>
        8 12 4 3</index></_>
    <_>
      <sv_count>5</sv_count>
      <rho>5.5102098060435855e-03</rho>
      <alpha>
        1.0608248474442890e-01 2.3684812134313709e-02
        9.3393321685447239e-01 -7.9471762278954883e-01
        -2.6898289094366629e-01</alpha>
      <index>
        11 8 12 1 21</index></_>
    <_>
      <sv_count>4</sv_count>
      <rho>1.6153708474308773e-01</rho>
      <alpha>
        7.7063647103435795e-01 9.9224079845801416e-01
        -1.1811318383608078e+00 -5.8174543113156452e-01</alpha>
      <index>
        11 10 7 16</index></_>
    <_>
      <sv_count>2</sv_count>
      <rho>-2.3418766925686896e-17</rho>
      <alpha>
        1.4047586608928382e+00 -1.4047586608928382e+00</alpha>
      <index>
        14 22</index></_>
    <_>
      <sv_count>4</sv_count>
      <rho>4.3238684804768096e-01</rho>
      <alpha>
        1.2487122849095311e+00 5.3670159589680388e-01
        -8.6705518588958985e-01 -9.1835869491674571e-01</alpha>
      <index>
        13 0 4 3</index></_>
    <_>
      <sv_count>4</sv_count>
      <rho>4.3699699324984912e-03</rho>
      <alpha>
        2.2375917395769040e-01 8.2928743813377204e-01
        -7.3626186433911855e-01 -3.1678474775234433e-01</alpha>
      <index>
        13 0 1 21</index></_>
    <_>
      <sv_count>6</sv_count>
      <rho>3.1719073584207608e-01</rho>
      <alpha>
        9.7011106316178175e+00 -6.6448381955351552e+00
        -2.3417865255843702e+00 -1.4415402743169883e-01
        -1.9552704107087385e-01 -3.7480484199572039e-01</alpha>
      <index>
        14 7 19 20 17 18</index></_>
    <_>
      <sv_count>5</sv_count>
      <rho>5.0467049746867443e-01</rho>
      <alpha>
        9.9988654199667408e+00 8.6734204514468782e+00
        -5.2293739938900663e-01 -9.9988342329826008e+00
        -8.1505142390420122e+00</alpha>
      <index>
        24 23 4 3 2</index></_>
    <_>
      <sv_count>4</sv_count>
      <rho>5.9312135408957911e-03</rho>
      <alpha>
        5.1441228960850083e-01 5.0234375061789971e-01
        -5.1742842447461823e-01 -4.9932761575178231e-01</alpha>
      <index>
        22 24 1 21</index></_>
    <_>
      <sv_count>4</sv_count>
      <rho>1.2191380860336067e-01</rho>
      <alpha>
        2.1358712218141185e+00 -1.2328735391161627e+00
        -6.1906820770879711e-01 -2.8392947498915905e-01</alpha>
      <index>
        22 6 25 16</index></_>
    <_>
      <sv_count>4</sv_count>
      <rho>-3.2619602820629684e-01</rho>
      <alpha>
        6.7066401790174279e-01 7.0040185413486877e-01
        -7.7140278207605562e-01 -5.9966308996055595e-01</alpha>
      <index>
        3 5 1 21</index></_>
    <_>
      <sv_count>4</sv_count>
      <rho>-2.9238849739377254e-01</rho>
      <alpha>
        8.2955601121229816e-01 1.4091889579309849e+00
        -1.4135454824160505e+00 -8.2519948672723276e-01</alpha>
      <index>
        4 3 6 16</index></_>
    <_>
      <sv_count>4</sv_count>
      <rho>1.1633537969757411e-01</rho>
      <alpha>
        8.4102204058457686e-01 3.4550423706455946e-01
        -5.1577255298932601e-01 -6.7075372465980998e-01</alpha>
      <index>
        1 21 7 16</index></_></decision_functions></opencv_ml_svm>
</opencv_storage>
